/*!
 * The following copyright notice may not be removed under any circumstances.
 * 
 * Copyright:
 * HTF Gotham  Copr. 2000 The Hoefler Type Foundry, Inc. Info: www.typography.com
 */
Cufon.registerFont({"w":623,"face":{"font-family":"Gotham","font-weight":700,"font-stretch":"normal","units-per-em":"1000","panose-1":"2 0 5 3 3 0 0 2 0 4","ascent":"800","descent":"-200","x-height":"12","bbox":"-44 -932 1740 710","underline-thickness":"20","underline-position":"-133","unicode-range":"U+0020-U+2122"},"glyphs":{" ":{"w":300},"!":{"d":"73,-700r178,0r0,20r-47,442r-84,0r-47,-442r0,-20xm243,0r-162,0r0,-160r162,0r0,160","w":324},"\"":{"d":"293,-381r18,-319r168,0r0,5r-109,314r-77,0xm57,-381r18,-319r168,0r0,5r-109,314r-77,0","w":520},"#":{"d":"665,-426r-98,0r-25,148r88,0r0,128r-110,0r-26,150r-132,0r26,-150r-145,0r-26,150r-132,0r26,-150r-76,0r0,-128r98,0r25,-148r-88,0r0,-128r110,0r25,-146r132,0r-25,146r145,0r25,-146r132,0r-25,146r76,0r0,128xm435,-426r-145,0r-25,148r145,0","w":700},"$":{"d":"70,-503v1,-118,94,-187,210,-197r0,-58r104,0r0,60v67,9,129,34,186,74r-67,117v-43,-29,-84,-48,-124,-59r0,151v76,21,131,47,165,81v34,34,52,79,52,135v-1,119,-96,186,-212,198r0,99r-104,0r0,-101v-89,-11,-167,-43,-236,-95r78,-114v57,43,112,70,163,81r0,-159v-75,-20,-129,-46,-163,-78v-34,-32,-52,-78,-52,-135xm285,-440r0,-135v-65,5,-88,62,-54,105v9,12,28,21,54,30xm379,-126v67,-5,90,-64,55,-108v-9,-12,-28,-22,-55,-32r0,140","w":646},"%":{"d":"216,-708v99,0,169,79,169,178v0,98,-72,180,-171,180v-99,0,-169,-79,-169,-178v0,-98,72,-180,171,-180xm745,-700r-511,700r-119,0r511,-700r119,0xm646,-350v99,0,169,79,169,178v0,98,-72,180,-171,180v-99,0,-169,-79,-169,-178v0,-98,72,-180,171,-180xm216,-441v42,0,64,-42,64,-87v0,-44,-25,-89,-66,-89v-42,0,-64,42,-64,87v0,44,25,89,66,89xm646,-83v42,0,64,-42,64,-87v0,-44,-25,-89,-66,-89v-42,0,-64,42,-64,87v0,44,25,89,66,89","w":860},"&":{"d":"333,-712v110,0,198,73,197,177v0,85,-49,146,-147,184r93,93v22,-35,45,-75,68,-120r113,62v-35,63,-65,112,-92,148r103,103r-113,79r-81,-82v-63,52,-132,78,-205,78v-129,0,-235,-78,-235,-203v0,-87,45,-152,136,-193v-33,-47,-49,-94,-49,-141v0,-109,93,-185,212,-185xm303,-432v52,-21,90,-36,93,-94v2,-40,-26,-66,-66,-66v-41,-1,-69,31,-68,72v0,27,14,57,41,88xm189,-199v-1,51,45,84,98,83v33,0,67,-13,101,-40r-134,-136v-43,23,-65,54,-65,93","w":696},"'":{"d":"57,-381r18,-319r170,0r0,5r-109,314r-79,0","w":286},"(":{"d":"403,-614v-68,47,-116,96,-147,146v-60,96,-60,266,0,362v31,50,79,99,147,146r-67,101v-93,-51,-161,-112,-208,-181v-91,-133,-91,-361,0,-494v47,-69,115,-130,208,-181","w":445},")":{"d":"317,-534v91,133,91,361,0,494v-47,69,-115,130,-208,181r-67,-101v68,-47,117,-96,148,-146v60,-96,60,-266,0,-362v-31,-50,-80,-99,-148,-146r67,-101v93,51,161,112,208,181","w":445},"*":{"d":"379,-490r-42,72r-97,-74r16,120r-82,0r16,-120r-97,74r-42,-72r112,-47r-112,-47r42,-72r97,74r-16,-120r82,0r-16,120r97,-74r42,72r-112,47","w":430},"+":{"d":"249,-421r0,-180r142,0r0,180r181,0r0,138r-181,0r0,180r-142,0r0,-180r-181,0r0,-138r181,0","w":640},",":{"d":"26,99v70,-8,104,-38,98,-99r-62,0r0,-160r162,0r0,135v0,128,-61,183,-185,187","w":286},"-":{"d":"358,-237r-308,0r0,-146r308,0r0,146","w":408},".":{"d":"224,0r-162,0r0,-160r162,0r0,160","w":286},"\/":{"d":"415,-798r129,0r-443,926r-129,0","w":530},"0":{"d":"366,-712v188,0,310,167,310,361v0,194,-124,363,-312,363v-188,0,-310,-167,-310,-361v0,-194,124,-363,312,-363xm366,-127v102,0,152,-109,152,-222v0,-113,-52,-224,-154,-224v-102,0,-152,108,-152,222v0,114,52,224,154,224","w":730},"1":{"d":"24,-645r201,-60r105,0r0,705r-152,0r0,-549r-122,30","w":422},"2":{"d":"403,-481v1,-56,-38,-93,-94,-91v-74,3,-97,42,-143,94r-108,-87v68,-88,122,-142,261,-145v141,-2,242,81,241,217v0,55,-14,99,-40,137v-44,63,-179,162,-258,223r305,0r0,133r-518,0r0,-122r233,-191v46,-38,78,-68,95,-91v17,-23,26,-49,26,-77"},"3":{"d":"412,-212v-1,-87,-102,-95,-201,-90r-24,-98r167,-168r-275,0r0,-132r473,0r0,116r-177,169v125,21,188,86,188,197v1,138,-107,230,-252,230v-114,0,-205,-40,-273,-121r106,-101v50,56,106,84,169,84v55,1,99,-33,99,-86","w":621},"4":{"d":"415,-705r130,0r0,429r94,0r0,125r-94,0r0,151r-147,0r0,-151r-342,0r-25,-109xm398,-276r0,-218r-186,218r186,0","w":689},"5":{"d":"420,-226v0,-110,-151,-114,-241,-70r-89,-59r20,-345r430,0r0,135r-298,0r-8,121v177,-43,337,30,337,213v0,150,-112,243,-266,243v-101,0,-189,-35,-262,-105r93,-111v56,51,112,76,167,76v69,1,117,-32,117,-98","w":630},"6":{"d":"54,-329v0,-215,98,-385,307,-383v81,0,154,26,219,77r-81,119v-46,-33,-74,-56,-143,-56v-90,0,-132,75,-141,162v45,-30,94,-45,145,-45v141,-1,246,82,246,224v0,144,-121,246,-267,243v-196,-4,-285,-126,-285,-341xm333,-120v70,0,120,-38,120,-104v0,-65,-53,-103,-122,-103v-69,0,-120,37,-120,102v0,66,53,105,122,105","w":662},"7":{"d":"68,-567r0,-133r504,0r0,116r-314,584r-174,0r313,-567r-329,0","w":619},"8":{"d":"472,-363v67,37,112,73,113,166v2,136,-126,207,-270,207v-142,0,-270,-72,-270,-203v0,-94,44,-138,113,-170v-59,-36,-89,-87,-89,-154v1,-118,116,-193,246,-193v131,0,245,75,246,193v0,67,-30,118,-89,154xm315,-414v56,0,100,-33,100,-86v0,-50,-45,-83,-100,-83v-55,0,-99,33,-100,82v0,53,44,87,100,87xm315,-117v65,0,121,-31,121,-88v0,-58,-57,-87,-121,-87v-64,0,-121,29,-121,87v0,57,56,88,121,88","w":630},"9":{"d":"56,-466v0,-145,118,-249,267,-246v98,2,150,25,202,76v55,55,83,144,83,265v0,217,-100,383,-306,383v-87,0,-163,-28,-230,-83r81,-117v50,40,101,60,153,60v90,-1,133,-71,142,-159v-37,32,-85,48,-142,48v-147,2,-250,-83,-250,-227xm331,-367v70,0,120,-39,120,-105v0,-67,-52,-108,-123,-108v-70,0,-119,40,-119,107v0,67,52,106,122,106","w":662},":":{"d":"229,-376r-162,0r0,-160r162,0r0,160xm229,0r-162,0r0,-160r162,0r0,160","w":296},";":{"d":"229,-376r-162,0r0,-160r162,0r0,160xm31,99v70,-8,104,-38,98,-99r-62,0r0,-160r162,0r0,135v0,128,-61,183,-185,187","w":296},"<":{"d":"68,-421r484,-212r0,141r-338,139r338,139r0,143r-484,-212r0,-138","w":640},"=":{"d":"83,-551r474,0r0,138r-474,0r0,-138xm83,-291r474,0r0,138r-474,0r0,-138","w":640},">":{"d":"572,-283r-484,212r0,-141r338,-139r-338,-139r0,-143r484,212r0,138","w":640},"?":{"d":"265,-709v140,-1,243,72,242,208v0,108,-66,175,-197,202r-11,61r-102,0r-23,-162r5,-5v117,-5,175,-35,175,-92v-1,-49,-39,-73,-92,-72v-54,0,-104,23,-150,69r-92,-101v65,-72,147,-108,245,-108xm326,0r-162,0r0,-160r162,0r0,160","w":544},"@":{"d":"53,-274v0,-235,202,-438,438,-438v120,0,223,40,308,120v85,80,128,171,128,276v0,144,-71,251,-199,251v-67,0,-118,-20,-153,-60v-44,40,-93,60,-148,60v-106,1,-183,-83,-183,-193v0,-128,103,-251,224,-251v59,0,105,23,138,68r11,-53r118,19r-47,269v-14,55,16,94,70,94v37,0,67,-18,91,-54v24,-36,36,-86,36,-150v0,-95,-39,-178,-115,-249v-76,-71,-169,-107,-279,-107v-218,0,-396,182,-396,398v0,221,179,396,404,396v87,0,169,-22,245,-67r20,32v-82,50,-170,75,-265,75v-244,0,-446,-197,-446,-436xm462,-168v67,1,119,-71,119,-144v0,-55,-39,-94,-93,-94v-68,0,-120,69,-120,141v0,59,37,97,94,97","w":980},"A":{"d":"766,0r-161,0r-64,-157r-296,0r-64,157r-157,0r300,-705r142,0xm486,-293r-93,-227r-93,227r186,0","w":790},"B":{"d":"548,-366v79,32,131,72,131,174v0,136,-115,193,-262,192r-333,0r0,-700r325,0v131,-2,231,61,231,183v0,66,-31,116,-92,151xm487,-491v0,-54,-42,-74,-101,-74r-152,0r0,148r142,0v74,0,111,-25,111,-74xm417,-135v73,0,110,-25,109,-78v0,-51,-38,-76,-114,-76r-178,0r0,154r183,0","w":722},"C":{"d":"417,-130v90,-2,129,-34,184,-82r98,99v-74,76,-146,123,-287,125v-201,3,-359,-161,-359,-362v0,-201,160,-366,365,-362v131,2,207,41,276,108r-98,113v-58,-53,-118,-79,-179,-79v-116,0,-203,102,-203,220v0,118,86,223,203,220","w":738},"D":{"d":"357,-700v208,-5,372,148,372,350v0,201,-165,350,-372,350r-273,0r0,-700r273,0xm357,-139v123,2,211,-87,211,-211v0,-122,-88,-213,-211,-211r-119,0r0,422r119,0","w":782},"E":{"d":"617,0r-533,0r0,-700r528,0r0,137r-375,0r0,142r330,0r0,137r-330,0r0,147r380,0r0,137","w":670},"F":{"d":"617,-560r-379,0r0,149r334,0r0,140r-334,0r0,271r-154,0r0,-700r533,0r0,140","w":656},"G":{"d":"214,-352v0,126,88,226,212,224v57,0,106,-14,145,-42r0,-100r-155,0r0,-133r304,0r0,304v-87,74,-187,111,-299,111v-210,0,-368,-154,-368,-362v0,-199,165,-366,367,-362v131,3,200,34,275,96r-97,117v-54,-44,-94,-70,-183,-71v-112,-3,-201,104,-201,218","w":784},"H":{"d":"676,0r-154,0r0,-281r-284,0r0,281r-154,0r0,-700r154,0r0,277r284,0r0,-277r154,0r0,700","w":760},"I":{"d":"245,0r-154,0r0,-700r154,0r0,700","w":336},"J":{"d":"491,-242v2,161,-92,252,-248,252v-94,0,-170,-35,-229,-105r97,-108v43,47,85,70,128,70v63,0,94,-39,94,-116r0,-451r158,0r0,458","w":564},"K":{"d":"721,0r-185,0r-217,-298r-81,84r0,214r-154,0r0,-700r154,0r0,306r284,-306r186,0r-285,297","w":730},"L":{"d":"587,0r-503,0r0,-700r154,0r0,560r349,0r0,140","w":619},"M":{"d":"784,0r-153,0r0,-457r-197,299r-4,0r-195,-296r0,454r-151,0r0,-700r166,0r184,296r184,-296r166,0r0,700","w":868},"N":{"d":"706,0r-131,0r-339,-445r0,445r-152,0r0,-700r142,0r328,431r0,-431r152,0r0,700","w":790},"O":{"d":"426,-712v206,0,371,160,371,362v0,200,-168,362,-373,362v-206,0,-371,-160,-371,-362v0,-200,168,-362,373,-362xm426,-130v121,0,210,-99,210,-220v0,-120,-92,-220,-212,-220v-121,0,-210,99,-210,220v0,120,92,220,212,220","w":850},"P":{"d":"370,-700v157,-3,268,92,268,244v0,158,-125,247,-283,246r-117,0r0,210r-154,0r0,-700r286,0xm360,-347v70,1,123,-42,122,-108v0,-71,-51,-107,-125,-106r-119,0r0,214r122,0","w":668},"Q":{"d":"426,-712v206,0,371,160,371,362v0,74,-21,141,-62,201r72,61r-98,109r-77,-69v-62,40,-131,60,-208,60v-206,0,-371,-160,-371,-362v0,-200,168,-362,373,-362xm214,-352v0,122,91,225,212,222v33,0,63,-6,92,-19r-114,-97r98,-110r115,104v13,-29,19,-61,19,-98v2,-120,-92,-220,-212,-220v-120,0,-210,98,-210,218","w":850},"R":{"d":"404,-700v157,-2,265,82,264,233v0,107,-50,180,-150,217r171,250r-180,0r-150,-224r-121,0r0,224r-154,0r0,-700r320,0xm394,-360v69,1,119,-36,118,-101v0,-69,-50,-100,-121,-100r-153,0r0,201r156,0","w":723},"S":{"d":"307,-574v-50,-1,-89,19,-90,63v0,23,10,40,29,51v19,11,60,25,122,41v76,20,132,46,168,77v36,31,54,76,54,135v1,141,-111,217,-257,217v-115,0,-214,-37,-297,-112r91,-109v69,57,138,85,209,85v55,0,101,-18,101,-68v0,-20,-10,-35,-28,-48v-29,-22,-164,-51,-210,-70v-74,-31,-135,-78,-135,-187v0,-130,110,-211,245,-211v99,0,186,30,260,89r-80,116v-66,-46,-127,-69,-182,-69","w":640},"T":{"d":"614,-558r-213,0r0,558r-154,0r0,-558r-213,0r0,-142r580,0r0,142","w":648},"U":{"d":"378,-131v100,0,151,-64,151,-168r0,-401r154,0r0,395v2,202,-111,316,-307,316v-193,0,-303,-113,-303,-311r0,-400r154,0r0,396v-1,106,50,173,151,173","w":756},"V":{"d":"726,-700r-283,705r-136,0r-283,-705r170,0r183,493r183,-493r166,0","w":750},"W":{"d":"1092,-700r-239,705r-134,0r-158,-458r-158,458r-134,0r-239,-705r165,0r145,474r157,-476r132,0r157,476r145,-474r161,0","w":1122},"X":{"d":"701,0r-180,0r-157,-240r-158,240r-175,0r244,-356r-234,-344r180,0r147,227r148,-227r175,0r-234,342","w":732},"Y":{"d":"704,-700r-269,421r0,279r-154,0r0,-276r-269,-424r180,0r167,281r170,-281r175,0","w":716},"Z":{"d":"646,0r-583,0r0,-117r385,-448r-373,0r0,-135r571,0r0,117r-385,448r385,0r0,135","w":708},"[":{"d":"406,-700r0,119r-177,0r0,592r177,0r0,119r-323,0r0,-830r323,0","w":465},"\\":{"d":"115,-798r443,926r-129,0r-443,-926r129,0","w":530},"]":{"d":"59,-700r323,0r0,830r-323,0r0,-119r177,0r0,-592r-177,0r0,-119","w":465},"^":{"d":"249,-610r-91,117r-108,0r148,-207r104,0r148,207r-110,0","w":500},"_":{"d":"-2,44r604,0r0,116r-604,0r0,-116","w":600},"`":{"d":"354,-595r-116,0r-128,-120r131,-57","w":500},"a":{"d":"36,-154v0,-121,92,-173,216,-173v45,0,88,7,131,22v3,-73,-35,-106,-115,-107v-46,0,-95,10,-148,29r-38,-116v65,-29,135,-43,208,-43v159,0,239,77,239,231r0,311r-147,0r0,-58v-41,45,-95,68,-162,68v-102,1,-184,-61,-184,-164xm266,-95v64,0,119,-35,119,-94r0,-27v-66,-32,-202,-35,-202,56v0,42,38,65,83,65","w":592},"b":{"d":"387,-546v142,1,244,121,244,279v0,157,-101,276,-244,277v-67,0,-122,-27,-167,-80r0,70r-152,0r0,-730r152,0r0,271v43,-58,98,-87,167,-87xm348,-119v77,0,131,-67,131,-150v0,-81,-55,-149,-131,-148v-76,0,-130,68,-130,150v0,81,54,149,130,148","w":675},"c":{"d":"192,-269v0,83,54,151,136,150v42,0,83,-19,123,-57r89,90v-57,59,-110,96,-219,98v-155,3,-279,-125,-279,-279v0,-153,125,-279,281,-279v89,0,161,30,214,90r-93,100v-37,-39,-78,-59,-122,-59v-75,0,-130,70,-130,146","w":571},"d":{"d":"44,-267v0,-159,100,-278,244,-279v67,0,122,27,167,80r0,-264r152,0r0,730r-152,0r0,-77v-43,58,-98,87,-167,87v-142,-1,-244,-121,-244,-277xm327,-119v76,0,130,-68,130,-150v0,-81,-54,-149,-130,-148v-77,0,-131,67,-131,150v0,81,55,149,131,148","w":675},"e":{"d":"307,-546v179,0,276,145,259,331r-373,0v13,64,58,105,131,105v47,0,91,-18,130,-55r87,77v-54,67,-127,100,-219,100v-160,0,-280,-117,-280,-279v0,-151,114,-279,265,-279xm420,-310v-8,-63,-46,-114,-113,-114v-68,0,-106,51,-116,114r229,0","w":613},"f":{"d":"368,-596v-52,-20,-127,-25,-124,45r0,21r123,0r0,124r-121,0r0,406r-152,0r0,-406r-63,0r0,-125r63,0v-8,-133,43,-208,166,-206v41,0,77,5,108,15r0,126","w":382},"g":{"d":"44,-294v0,-146,103,-252,238,-252v67,0,124,27,173,80r0,-70r152,0r0,415v-1,201,-97,282,-299,283v-87,0,-166,-19,-237,-56r52,-114v58,33,118,49,181,49v112,0,160,-58,153,-172v-45,53,-87,86,-175,87v-135,1,-238,-106,-238,-250xm326,-170v73,0,131,-53,131,-126v0,-71,-59,-124,-131,-124v-73,0,-130,53,-130,126v0,73,57,124,130,124","w":675},"h":{"d":"377,-546v117,-1,182,79,182,199r0,347r-152,0r0,-299v1,-66,-30,-109,-92,-109v-62,0,-95,43,-95,109r0,299r-152,0r0,-730r152,0r0,270v45,-57,97,-86,157,-86"},"i":{"d":"231,-595r-160,0r0,-135r160,0r0,135xm227,0r-152,0r0,-536r152,0r0,536","w":302},"j":{"d":"231,-595r-160,0r0,-135r160,0r0,135xm227,-9v0,115,-57,172,-172,172v-23,0,-45,-2,-66,-6r0,-119v51,10,86,-4,86,-59r0,-515r152,0r0,527","w":302},"k":{"d":"587,0r-174,0r-140,-219r-53,56r0,163r-152,0r0,-730r152,0r0,389r178,-195r182,0r-204,211","w":592},"l":{"d":"227,0r-152,0r0,-730r152,0r0,730","w":302},"m":{"d":"705,-546v118,0,181,74,181,197r0,349r-152,0r0,-299v0,-73,-30,-109,-89,-109v-61,0,-93,43,-92,109r0,299r-152,0r0,-299v0,-73,-30,-109,-89,-109v-61,0,-93,43,-92,109r0,299r-152,0r0,-536r152,0r0,76v45,-57,97,-86,158,-86v71,0,122,28,151,85v49,-57,107,-85,176,-85","w":950},"n":{"d":"377,-546v117,-1,182,79,182,199r0,347r-152,0r0,-299v1,-66,-30,-109,-92,-109v-62,0,-95,43,-95,109r0,299r-152,0r0,-536r152,0r0,76v45,-57,97,-86,157,-86"},"o":{"d":"333,-546v159,0,289,123,289,279v0,155,-133,279,-291,279v-159,0,-289,-123,-289,-279v0,-155,133,-279,291,-279xm333,-119v83,0,139,-65,139,-148v0,-80,-60,-148,-141,-148v-83,0,-139,65,-139,148v0,80,60,148,141,148","w":664},"p":{"d":"387,-546v142,1,244,121,244,279v0,157,-101,276,-244,277v-67,0,-122,-27,-167,-80r0,230r-152,0r0,-696r152,0r0,77v43,-58,98,-87,167,-87xm348,-119v77,0,131,-67,131,-150v0,-81,-55,-149,-131,-148v-76,0,-130,68,-130,150v0,81,54,149,130,148","w":675},"q":{"d":"44,-267v0,-159,100,-278,244,-279v67,0,122,27,167,80r0,-70r152,0r0,696r-152,0r0,-237v-43,58,-98,87,-167,87v-142,-1,-244,-121,-244,-277xm327,-119v76,0,130,-68,130,-150v0,-81,-54,-149,-130,-148v-77,0,-131,67,-131,150v0,81,55,149,131,148","w":675},"r":{"d":"391,-387v-117,-2,-172,69,-171,189r0,198r-152,0r0,-536r152,0r0,108v36,-81,87,-120,171,-118r0,159","w":418},"s":{"d":"246,-427v-31,0,-56,11,-56,39v0,17,19,32,57,46r52,18v80,29,160,55,162,161v2,117,-87,173,-205,173v-85,0,-161,-27,-230,-81r65,-100v59,43,115,64,169,64v48,-1,69,-16,62,-52v-20,-33,-69,-39,-109,-52v-83,-26,-159,-56,-160,-163v-2,-106,89,-171,196,-170v72,0,139,21,200,62r-58,105v-57,-33,-105,-50,-145,-50","w":502},"t":{"d":"249,9v-105,-2,-156,-48,-156,-161r0,-254r-64,0r0,-130r64,0r0,-137r152,0r0,137r126,0r0,130r-126,0r0,229v0,35,16,52,49,52v27,0,52,-6,75,-19r0,122v-35,21,-75,31,-120,31","w":415},"u":{"d":"308,-128v62,0,95,-43,95,-109r0,-299r152,0r0,536r-152,0r0,-76v-45,57,-97,86,-157,86v-117,1,-182,-79,-182,-199r0,-347r152,0r0,299v-1,66,30,109,92,109"},"v":{"d":"580,-536r-211,540r-138,0r-211,-540r161,0r120,359r121,-359r158,0","w":600},"w":{"d":"837,-536r-167,540r-137,0r-103,-329r-105,329r-136,0r-165,-540r154,0r86,325r101,-327r131,0r102,328r88,-326r151,0","w":861},"x":{"d":"561,0r-163,0r-108,-167r-108,167r-159,0r188,-272r-181,-264r163,0r100,156r101,-156r159,0r-181,261","w":584},"y":{"d":"578,-536r-206,549v-38,94,-65,150,-176,150v-48,0,-93,-12,-135,-37r51,-110v44,27,95,33,118,-14r-210,-538r161,0r122,365r117,-365r158,0","w":600},"z":{"d":"516,0r-466,0r0,-107r277,-306r-268,0r0,-123r457,0r0,107r-278,306r278,0r0,123","w":563},"{":{"d":"185,-448v-5,-84,-2,-154,48,-197v35,-30,95,-55,183,-70r27,101v-51,15,-83,30,-99,46v-29,28,-20,93,-20,147v0,67,-35,111,-104,134v69,23,107,67,104,134r-3,74v5,86,39,91,122,119r-27,101v-88,-15,-148,-40,-183,-70v-49,-43,-53,-113,-48,-197v5,-89,-45,-106,-136,-103r0,-116v90,3,141,-14,136,-103","w":490},"|":{"d":"235,128r-120,0r0,-926r120,0r0,926","w":350},"}":{"d":"305,-448v-5,89,45,106,136,103r0,116v-90,-3,-141,14,-136,103v5,84,2,154,-48,197v-35,30,-95,55,-183,70r-27,-101v51,-15,83,-30,99,-46v29,-28,20,-93,20,-147v0,-67,35,-111,104,-134v-69,-23,-107,-67,-104,-134r3,-74v-5,-86,-39,-91,-122,-119r27,-101v88,15,148,40,183,70v49,43,53,113,48,197","w":490},"~":{"d":"323,-348v37,-2,42,-20,57,-49r81,25v-23,76,-43,131,-124,138v-33,3,-126,-39,-150,-39v-37,2,-42,20,-57,49r-81,-25v23,-76,43,-131,124,-138v33,-3,126,39,150,39","w":510},"\u00a0":{"w":300},"\u00a1":{"d":"81,-700r162,0r0,160r-162,0r0,-160xm251,0r-178,0r0,-20r47,-442r84,0r47,442r0,20","w":324},"\u00a2":{"d":"47,-354v0,-156,124,-287,286,-280r14,-72r104,0r-17,88v39,13,75,38,108,74r-90,97v-17,-17,-33,-29,-49,-37r-55,276v37,-5,73,-23,108,-56r86,87v-59,65,-130,99,-214,101r-16,82r-104,0r19,-98v-98,-35,-180,-135,-180,-262xm312,-503v-69,4,-118,73,-118,147v0,59,21,103,64,130","w":581},"\u00a3":{"d":"375,-567v-53,-1,-84,40,-83,96r0,77r228,0r0,127r-228,0r0,134r304,0r0,133r-536,0r0,-101r76,-25r0,-141r-76,0r0,-127r76,0r0,-81v-1,-148,88,-236,237,-235v93,0,168,38,225,115r-117,94v-31,-38,-51,-65,-106,-66","w":644},"\u00a4":{"d":"437,12v-159,0,-260,-98,-296,-229r-92,0r0,-101r75,0v-1,-13,-1,-56,0,-68r-75,0r0,-101r94,0v38,-125,136,-225,291,-225v126,1,190,51,246,128r-116,88v-36,-45,-64,-79,-133,-79v-59,0,-101,29,-127,88r184,0r0,101r-208,0v-1,12,-1,55,0,68r208,0r0,101r-186,0v26,61,71,92,135,92v72,0,93,-35,135,-82r110,81v-59,79,-121,138,-245,138","w":720},"\u00a5":{"d":"417,-262r0,62r184,0r0,108r-184,0r0,92r-148,0r0,-92r-184,0r0,-108r184,0r0,-62r-184,0r0,-108r143,0r-214,-330r177,0r154,259r155,-259r172,0r-216,330r145,0r0,108r-184,0","w":686},"\u00a7":{"d":"102,-554v1,-105,89,-156,205,-156v97,0,175,32,233,95r-82,82v-48,-44,-97,-66,-147,-66v-64,0,-87,41,-45,67v14,8,44,16,89,26v81,18,137,38,171,60v34,22,51,52,51,90v0,57,-30,96,-89,118v28,22,42,53,42,92v-1,105,-89,156,-205,156v-97,0,-175,-32,-233,-95r82,-82v48,44,97,66,147,66v64,0,87,-41,45,-67v-14,-8,-44,-16,-89,-26v-81,-18,-137,-38,-171,-60v-34,-22,-51,-52,-51,-90v0,-57,30,-96,89,-118v-28,-22,-42,-53,-42,-92xm389,-289v51,0,75,-54,31,-78v-26,-14,-147,-44,-177,-44v-51,0,-75,54,-31,78v26,14,147,44,177,44","w":632},"\u00a8":{"d":"430,-595r-146,0r0,-135r146,0r0,135xm216,-595r-146,0r0,-135r146,0r0,135","w":500},"\u00a9":{"d":"416,-712v195,0,361,167,361,361v0,194,-168,363,-363,363v-195,0,-361,-167,-361,-361v0,-194,168,-363,363,-363xm414,-28v177,0,321,-147,321,-323v0,-175,-143,-321,-319,-321v-177,0,-321,147,-321,323v0,175,143,321,319,321xm312,-355v0,64,46,120,110,119v33,0,66,-15,99,-45r56,56v-43,46,-95,69,-158,69v-109,0,-197,-89,-197,-198v0,-111,88,-200,200,-200v61,0,111,20,152,59r-55,64v-32,-29,-64,-43,-97,-43v-63,-1,-110,55,-110,119","w":830},"\u00aa":{"d":"52,-490v0,-92,109,-111,191,-83v2,-40,-19,-59,-64,-59v-25,0,-52,5,-81,16r-21,-63v35,-16,74,-24,115,-24v87,0,131,42,131,127r0,171r-81,0r0,-32v-50,65,-190,45,-190,-53xm327,-277r-278,0r0,-66r278,0r0,66xm178,-457v40,0,72,-22,66,-67v-40,-18,-111,-17,-111,30v0,25,15,37,45,37","w":390},"\u00ab":{"d":"481,-496r116,56r-130,171r130,171r-116,58r-168,-224r0,-8xm209,-496r116,56r-130,171r130,171r-116,58r-168,-224r0,-8","w":645},"\u00ad":{"d":"358,-237r-308,0r0,-146r308,0r0,146","w":408},"\u00ae":{"d":"416,-712v195,0,361,167,361,361v0,194,-168,363,-363,363v-195,0,-361,-167,-361,-361v0,-194,168,-363,363,-363xm414,-28v177,0,321,-147,321,-323v0,-175,-143,-321,-319,-321v-177,0,-321,147,-321,323v0,175,143,321,319,321xm437,-553v88,-1,151,43,151,127v0,60,-28,100,-83,120r94,138r-99,0r-82,-124r-67,0r0,124r-85,0r0,-385r171,0xm436,-365v39,1,66,-20,66,-56v0,-38,-23,-57,-68,-57r-83,0r0,113r85,0","w":830},"\u00af":{"d":"430,-600r-360,0r0,-105r360,0r0,105","w":500},"\u00b0":{"d":"240,-706v89,0,173,81,173,169v0,88,-85,169,-173,169v-89,0,-173,-81,-173,-169v0,-88,85,-169,173,-169xm240,-443v50,0,92,-44,92,-94v0,-50,-42,-94,-92,-94v-50,0,-92,44,-92,94v0,50,42,94,92,94","w":480},"\u00b1":{"d":"459,-360v64,29,111,67,111,153v0,137,-108,219,-256,219v-112,0,-204,-40,-277,-119r103,-100v52,54,111,81,176,81v60,1,102,-27,103,-83v0,-53,-44,-80,-132,-80r-77,0r0,-128r81,0v62,1,109,-27,109,-82v0,-50,-45,-77,-101,-75v-70,2,-101,38,-143,81r-106,-90v65,-78,121,-127,251,-129v135,-3,248,67,250,189v0,75,-31,129,-92,163","w":614},"\u00b2":{"d":"309,572v-26,0,-50,-7,-71,-22v-21,-14,-45,-38,-72,-72r-108,87v37,50,75,87,114,110v39,23,88,35,147,35v74,0,133,-20,176,-59v43,-39,65,-92,65,-158v0,-55,-14,-101,-41,-138v-27,-37,-74,-81,-143,-134r-114,-88r305,0r0,-133r-518,0r0,122r233,191v46,38,78,69,95,92v17,23,26,48,26,76v0,29,-9,51,-26,67v-17,16,-40,24,-68,24"},"\u00b3":{"d":"354,568r-275,0r0,132r473,0r0,-116r-177,-169v125,-21,188,-86,188,-197v0,-67,-23,-123,-69,-166v-45,-43,-106,-64,-183,-64v-114,0,-205,40,-273,121r106,101v50,-56,106,-84,169,-84v29,0,53,8,72,24v18,15,27,36,27,62v0,29,-12,51,-36,67v-23,15,-57,23,-101,23r-64,0r-24,98","w":621},"\u00b4":{"d":"262,-595r-116,0r113,-177r131,57","w":500},"\u00b5":{"d":"426,-712v205,0,371,160,371,361v0,104,-38,191,-114,262r178,180r0,10r-226,0r-105,-103v-256,69,-477,-112,-477,-347v0,-201,168,-363,373,-363xm426,-130v120,0,210,-99,210,-219v0,-119,-92,-221,-212,-221v-120,0,-210,99,-210,219v0,119,92,221,212,221","w":850},"\u00b6":{"d":"35,-464v-1,-152,119,-236,276,-236r195,0r0,700r-154,0r0,-230v-178,7,-316,-69,-317,-234","w":590},"\u00b7":{"d":"224,-230r-162,0r0,-160r162,0r0,160","w":286},"\u00b8":{"d":"207,-10r112,0r-74,183r-127,-53","w":500},"\u00b9":{"d":"24,645r201,60r105,0r0,-705r-152,0r0,549r-122,-30","w":422},"\u00ba":{"d":"196,-705v86,0,153,68,153,153v0,85,-69,154,-155,154v-86,0,-153,-68,-153,-153v0,-85,69,-154,155,-154xm339,-277r-288,0r0,-66r288,0r0,66xm196,-470v43,0,71,-38,71,-81v0,-43,-30,-82,-73,-82v-43,0,-71,38,-71,81v0,43,30,82,73,82","w":390},"\u00bb":{"d":"436,-40r-116,-56r130,-171r-130,-171r116,-58r168,224r0,8xm164,-40r-116,-56r130,-171r-130,-171r116,-58r168,224r0,8","w":645},"\u00bc":{"d":"817,-758r134,0r-466,856r-134,0xm1317,705r130,0r0,-429r94,0r0,-125r-94,0r0,-151r-147,0r0,151r-342,0r-25,109xm1300,276r0,218r-186,-218r186,0xm24,645r201,60r105,0r0,-705r-152,0r0,549r-122,-30","w":1591},"\u00bd":{"d":"817,-758r134,0r-466,856r-134,0xm1211,572v-26,0,-50,-7,-71,-22v-21,-14,-45,-38,-72,-72r-108,87v37,50,75,87,114,110v39,23,88,35,147,35v74,0,133,-20,176,-59v43,-39,65,-92,65,-158v0,-55,-14,-101,-41,-138v-27,-37,-74,-81,-143,-134r-114,-88r305,0r0,-133r-518,0r0,122r233,191v46,38,78,69,95,92v17,23,26,48,26,76v0,29,-9,51,-26,67v-17,16,-40,24,-68,24xm24,645r201,60r105,0r0,-705r-152,0r0,549r-122,-30","w":1525},"\u00be":{"d":"1016,-758r134,0r-466,856r-134,0xm1516,705r130,0r0,-429r94,0r0,-125r-94,0r0,-151r-147,0r0,151r-342,0r-25,109xm1499,276r0,218r-186,-218r186,0xm354,568r-275,0r0,132r473,0r0,-116r-177,-169v125,-21,188,-86,188,-197v0,-67,-23,-123,-69,-166v-45,-43,-106,-64,-183,-64v-114,0,-205,40,-273,121r106,101v50,-56,106,-84,169,-84v29,0,53,8,72,24v18,15,27,36,27,62v0,29,-12,51,-36,67v-23,15,-57,23,-101,23r-64,0r-24,98","w":1790},"\u00bf":{"d":"218,-700r162,0r0,160r-162,0r0,-160xm279,9v-140,1,-243,-72,-242,-208v0,-108,66,-175,197,-202r11,-61r102,0r23,162r-5,5v-117,5,-175,35,-175,92v1,49,39,73,92,72v54,0,104,-23,150,-69r92,101v-65,72,-147,108,-245,108","w":544},"\u00c0":{"d":"766,0r-161,0r-64,-157r-296,0r-64,157r-157,0r300,-705r142,0xm486,-293r-93,-227r-93,227r186,0xm459,-755r-116,0r-128,-120r131,-57","w":790},"\u00c1":{"d":"766,0r-161,0r-64,-157r-296,0r-64,157r-157,0r300,-705r142,0xm486,-293r-93,-227r-93,227r186,0xm447,-755r-116,0r113,-177r131,57","w":790},"\u00c2":{"d":"766,0r-161,0r-64,-157r-296,0r-64,157r-157,0r300,-705r142,0xm486,-293r-93,-227r-93,227r186,0xm394,-821r-79,66r-115,0r123,-157r144,0r123,157r-117,0","w":790},"\u00c3":{"d":"766,0r-161,0r-64,-157r-296,0r-64,157r-157,0r300,-705r142,0xm486,-293r-93,-227r-93,227r186,0xm463,-869v37,-2,42,-20,57,-49r81,25v-23,76,-43,131,-124,138v-33,3,-126,-39,-150,-39v-37,2,-42,20,-57,49r-81,-25v23,-76,43,-131,124,-138v33,-3,126,39,150,39","w":790},"\u00c4":{"d":"766,0r-161,0r-64,-157r-296,0r-64,157r-157,0r300,-705r142,0xm486,-293r-93,-227r-93,227r186,0xm575,-755r-146,0r0,-135r146,0r0,135xm361,-755r-146,0r0,-135r146,0r0,135","w":790},"\u00c5":{"d":"395,-892v62,0,121,55,121,117v0,34,-14,63,-42,88r292,687r-161,0r-64,-157r-296,0r-64,157r-157,0r292,-687v-28,-25,-42,-54,-42,-88v0,-62,59,-117,121,-117xm395,-713v32,0,62,-30,62,-62v0,-32,-30,-62,-62,-62v-32,0,-62,30,-62,62v0,32,30,62,62,62xm486,-293r-93,-227r-93,227r186,0","w":790},"\u00c6":{"d":"992,0r-508,0r0,-157r-235,0r-83,157r-157,0r377,-700r601,0r0,137r-350,0r0,142r305,0r0,137r-305,0r0,147r355,0r0,137xm484,-293r0,-274r-18,0r-145,274r163,0","w":1045},"\u00c7":{"d":"417,-130v90,-2,129,-34,184,-82r98,99v-68,71,-136,117,-261,124r-65,162r-127,-53r80,-118v-151,-31,-273,-173,-273,-351v0,-201,160,-367,365,-363v131,2,207,41,276,108r-98,113v-58,-53,-118,-79,-179,-79v-116,0,-203,102,-203,219v0,118,86,224,203,221","w":738},"\u00c8":{"d":"617,0r-533,0r0,-700r528,0r0,137r-375,0r0,142r330,0r0,137r-330,0r0,147r380,0r0,137xm433,-755r-116,0r-128,-120r131,-57","w":670},"\u00c9":{"d":"617,0r-533,0r0,-700r528,0r0,137r-375,0r0,142r330,0r0,137r-330,0r0,147r380,0r0,137xm380,-755r-116,0r113,-177r131,57","w":670},"\u00ca":{"d":"617,0r-533,0r0,-700r528,0r0,137r-375,0r0,142r330,0r0,137r-330,0r0,147r380,0r0,137xm345,-821r-79,66r-115,0r123,-157r144,0r123,157r-117,0","w":670},"\u00cb":{"d":"617,0r-533,0r0,-700r528,0r0,137r-375,0r0,142r330,0r0,137r-330,0r0,147r380,0r0,137xm526,-755r-146,0r0,-135r146,0r0,135xm312,-755r-146,0r0,-135r146,0r0,135","w":670},"\u00cc":{"d":"245,0r-154,0r0,-700r154,0r0,700xm232,-755r-116,0r-128,-120r131,-57","w":336},"\u00cd":{"d":"245,0r-154,0r0,-700r154,0r0,700xm220,-755r-116,0r113,-177r131,57","w":336},"\u00ce":{"d":"245,0r-154,0r0,-700r154,0r0,700xm167,-821r-79,66r-115,0r123,-157r144,0r123,157r-117,0","w":336},"\u00cf":{"d":"245,0r-154,0r0,-700r154,0r0,700xm348,-755r-146,0r0,-135r146,0r0,135xm134,-755r-146,0r0,-135r146,0r0,135","w":336},"\u00d0":{"d":"759,-351v0,201,-165,351,-372,351r-273,0r0,-284r-75,0r0,-136r75,0r0,-280r273,0v208,-5,372,148,372,349xm598,-349v0,-123,-88,-214,-211,-212r-121,0r0,141r152,0r0,136r-152,0r0,145r121,0v123,2,211,-87,211,-210","w":812},"\u00d1":{"d":"706,0r-131,0r-339,-445r0,445r-152,0r0,-700r142,0r328,431r0,-431r152,0r0,700xm463,-869v37,-2,42,-20,57,-49r81,25v-23,76,-43,131,-124,138v-33,3,-126,-39,-150,-39v-37,2,-42,20,-57,49r-81,-25v23,-76,43,-131,124,-138v33,-3,126,39,150,39","w":790},"\u00d2":{"d":"426,-712v206,0,371,160,371,362v0,200,-168,362,-373,362v-206,0,-371,-160,-371,-362v0,-200,168,-362,373,-362xm426,-130v121,0,210,-99,210,-220v0,-120,-92,-220,-212,-220v-121,0,-210,99,-210,220v0,120,92,220,212,220xm479,-755r-116,0r-128,-120r131,-57","w":850},"\u00d3":{"d":"426,-712v206,0,371,160,371,362v0,200,-168,362,-373,362v-206,0,-371,-160,-371,-362v0,-200,168,-362,373,-362xm426,-130v121,0,210,-99,210,-220v0,-120,-92,-220,-212,-220v-121,0,-210,99,-210,220v0,120,92,220,212,220xm487,-755r-116,0r113,-177r131,57","w":850},"\u00d4":{"d":"426,-712v206,0,371,160,371,362v0,200,-168,362,-373,362v-206,0,-371,-160,-371,-362v0,-200,168,-362,373,-362xm426,-130v121,0,210,-99,210,-220v0,-120,-92,-220,-212,-220v-121,0,-210,99,-210,220v0,120,92,220,212,220xm424,-821r-79,66r-115,0r123,-157r144,0r123,157r-117,0","w":850},"\u00d5":{"d":"426,-712v206,0,371,160,371,362v0,200,-168,362,-373,362v-206,0,-371,-160,-371,-362v0,-200,168,-362,373,-362xm426,-130v121,0,210,-99,210,-220v0,-120,-92,-220,-212,-220v-121,0,-210,99,-210,220v0,120,92,220,212,220xm493,-869v37,-2,42,-20,57,-49r81,25v-23,76,-43,131,-124,138v-33,3,-126,-39,-150,-39v-37,2,-42,20,-57,49r-81,-25v23,-76,43,-131,124,-138v33,-3,126,39,150,39","w":850},"\u00d6":{"d":"426,-712v206,0,371,160,371,362v0,200,-168,362,-373,362v-206,0,-371,-160,-371,-362v0,-200,168,-362,373,-362xm426,-130v121,0,210,-99,210,-220v0,-120,-92,-220,-212,-220v-121,0,-210,99,-210,220v0,120,92,220,212,220xm605,-755r-146,0r0,-135r146,0r0,135xm391,-755r-146,0r0,-135r146,0r0,135","w":850},"\u00d8":{"d":"53,-349v0,-201,168,-363,373,-363v71,0,136,17,193,50r39,-43r147,0r-98,114v60,66,90,146,90,240v0,201,-168,363,-373,363v-71,0,-136,-17,-193,-50r-39,43r-147,0r98,-114v-60,-66,-90,-146,-90,-240xm424,-573v-120,0,-216,104,-213,222v0,45,12,86,35,123r277,-321v-31,-16,-64,-24,-99,-24xm426,-127v120,0,216,-104,213,-222v0,-45,-12,-86,-35,-123r-277,321v31,16,64,24,99,24","w":850},"\u00d9":{"d":"378,-131v100,0,151,-64,151,-168r0,-401r154,0r0,395v2,202,-111,316,-307,316v-193,0,-303,-113,-303,-311r0,-400r154,0r0,396v-1,106,50,173,151,173xm447,-750r-116,0r-128,-120r131,-57","w":756},"\u00da":{"d":"378,-131v100,0,151,-64,151,-168r0,-401r154,0r0,395v2,202,-111,316,-307,316v-193,0,-303,-113,-303,-311r0,-400r154,0r0,396v-1,106,50,173,151,173xm425,-750r-116,0r113,-177r131,57","w":756},"\u00db":{"d":"378,-131v100,0,151,-64,151,-168r0,-401r154,0r0,395v2,202,-111,316,-307,316v-193,0,-303,-113,-303,-311r0,-400r154,0r0,396v-1,106,50,173,151,173xm377,-821r-79,66r-115,0r123,-157r144,0r123,157r-117,0","w":756},"\u00dc":{"d":"378,-131v100,0,151,-64,151,-168r0,-401r154,0r0,395v2,202,-111,316,-307,316v-193,0,-303,-113,-303,-311r0,-400r154,0r0,396v-1,106,50,173,151,173xm558,-755r-146,0r0,-135r146,0r0,135xm344,-755r-146,0r0,-135r146,0r0,135","w":756},"\u00dd":{"d":"704,-700r-269,421r0,279r-154,0r0,-276r-269,-424r180,0r167,281r170,-281r175,0xm415,-750r-116,0r113,-177r131,57","w":716},"\u00de":{"d":"370,-598v157,-3,268,92,268,243v0,159,-125,248,-283,247r-117,0r0,108r-154,0r0,-700r154,0r0,102r132,0xm360,-245v71,1,122,-40,122,-107v0,-72,-50,-108,-125,-107r-119,0r0,214r122,0","w":673},"\u00df":{"d":"314,-737v129,0,223,76,223,195v0,87,-38,125,-91,164v87,38,131,97,131,178v0,142,-120,209,-278,202r0,-114v85,-4,128,-35,128,-93v0,-63,-64,-89,-128,-98r0,-100v59,-37,88,-79,88,-125v1,-50,-31,-81,-80,-81v-54,0,-88,44,-88,100r0,509r-151,0r0,-503v-1,-147,97,-234,246,-234","w":620},"\u00e0":{"d":"36,-154v0,-121,92,-173,216,-173v45,0,88,7,131,22v3,-73,-35,-106,-115,-107v-46,0,-95,10,-148,29r-38,-116v65,-29,135,-43,208,-43v159,0,239,77,239,231r0,311r-147,0r0,-58v-41,45,-95,68,-162,68v-102,1,-184,-61,-184,-164xm266,-95v64,0,119,-35,119,-94r0,-27v-66,-32,-202,-35,-202,56v0,42,38,65,83,65xm370,-595r-116,0r-128,-120r131,-57","w":592},"\u00e1":{"d":"36,-154v0,-121,92,-173,216,-173v45,0,88,7,131,22v3,-73,-35,-106,-115,-107v-46,0,-95,10,-148,29r-38,-116v65,-29,135,-43,208,-43v159,0,239,77,239,231r0,311r-147,0r0,-58v-41,45,-95,68,-162,68v-102,1,-184,-61,-184,-164xm266,-95v64,0,119,-35,119,-94r0,-27v-66,-32,-202,-35,-202,56v0,42,38,65,83,65xm343,-595r-116,0r113,-177r131,57","w":592},"\u00e2":{"d":"36,-154v0,-121,92,-173,216,-173v45,0,88,7,131,22v3,-73,-35,-106,-115,-107v-46,0,-95,10,-148,29r-38,-116v65,-29,135,-43,208,-43v159,0,239,77,239,231r0,311r-147,0r0,-58v-41,45,-95,68,-162,68v-102,1,-184,-61,-184,-164xm266,-95v64,0,119,-35,119,-94r0,-27v-66,-32,-202,-35,-202,56v0,42,38,65,83,65xm293,-661r-79,66r-115,0r123,-157r144,0r123,157r-117,0","w":592},"\u00e3":{"d":"36,-154v0,-121,92,-173,216,-173v45,0,88,7,131,22v3,-73,-35,-106,-115,-107v-46,0,-95,10,-148,29r-38,-116v65,-29,135,-43,208,-43v159,0,239,77,239,231r0,311r-147,0r0,-58v-41,45,-95,68,-162,68v-102,1,-184,-61,-184,-164xm266,-95v64,0,119,-35,119,-94r0,-27v-66,-32,-202,-35,-202,56v0,42,38,65,83,65xm364,-709v37,-2,42,-20,57,-49r81,25v-23,76,-43,131,-124,138v-33,3,-126,-39,-150,-39v-37,2,-42,20,-57,49r-81,-25v23,-76,43,-131,124,-138v33,-3,126,39,150,39","w":592},"\u00e4":{"d":"36,-154v0,-121,92,-173,216,-173v45,0,88,7,131,22v3,-73,-35,-106,-115,-107v-46,0,-95,10,-148,29r-38,-116v65,-29,135,-43,208,-43v159,0,239,77,239,231r0,311r-147,0r0,-58v-41,45,-95,68,-162,68v-102,1,-184,-61,-184,-164xm266,-95v64,0,119,-35,119,-94r0,-27v-66,-32,-202,-35,-202,56v0,42,38,65,83,65xm474,-595r-146,0r0,-135r146,0r0,135xm260,-595r-146,0r0,-135r146,0r0,135","w":592},"\u00e5":{"d":"36,-154v0,-121,92,-173,216,-173v45,0,88,7,131,22v3,-73,-35,-106,-115,-107v-46,0,-95,10,-148,29r-38,-116v65,-29,135,-43,208,-43v159,0,239,77,239,231r0,311r-147,0r0,-58v-41,45,-95,68,-162,68v-102,1,-184,-61,-184,-164xm266,-95v64,0,119,-35,119,-94r0,-27v-66,-32,-202,-35,-202,56v0,42,38,65,83,65xm294,-827v62,0,121,55,121,117v0,62,-59,117,-121,117v-62,0,-121,-55,-121,-117v0,-62,59,-117,121,-117xm294,-648v34,0,62,-28,62,-62v0,-34,-28,-62,-62,-62v-34,0,-62,28,-62,62v0,34,28,62,62,62","w":592},"\u00e6":{"d":"649,-546v176,-2,272,148,255,331r-373,0v16,70,60,105,131,105v47,0,91,-18,130,-55r87,77v-54,67,-127,100,-219,100v-83,0,-151,-27,-204,-81v-71,53,-144,79,-218,79v-113,1,-203,-58,-202,-167v0,-118,93,-171,216,-170v45,0,88,7,131,22v3,-73,-35,-106,-115,-107v-46,0,-95,10,-148,29r-38,-116v118,-55,317,-68,390,25v47,-48,106,-72,177,-72xm758,-310v-8,-63,-46,-114,-113,-114v-68,0,-106,51,-116,114r229,0xm183,-163v0,43,37,67,83,66v47,0,93,-17,137,-51v-10,-23,-16,-46,-19,-69v-30,-13,-62,-19,-96,-19v-70,0,-105,24,-105,73","w":951},"\u00e7":{"d":"192,-268v0,82,55,151,136,149v42,0,83,-19,123,-57r89,90v-55,60,-120,92,-194,97r-65,162r-127,-53r82,-120v-107,-30,-194,-134,-194,-266v0,-154,125,-280,281,-280v89,0,161,30,214,90r-93,100v-37,-39,-78,-59,-122,-59v-75,0,-130,70,-130,147","w":571},"\u00e8":{"d":"307,-546v179,0,276,145,259,331r-373,0v13,64,58,105,131,105v47,0,91,-18,130,-55r87,77v-54,67,-127,100,-219,100v-160,0,-280,-117,-280,-279v0,-151,114,-279,265,-279xm420,-310v-8,-63,-46,-114,-113,-114v-68,0,-106,51,-116,114r229,0xm366,-595r-116,0r-128,-120r131,-57","w":613},"\u00e9":{"d":"307,-546v179,0,276,145,259,331r-373,0v13,64,58,105,131,105v47,0,91,-18,130,-55r87,77v-54,67,-127,100,-219,100v-160,0,-280,-117,-280,-279v0,-151,114,-279,265,-279xm420,-310v-8,-63,-46,-114,-113,-114v-68,0,-106,51,-116,114r229,0xm362,-595r-116,0r113,-177r131,57","w":613},"\u00ea":{"d":"307,-546v179,0,276,145,259,331r-373,0v13,64,58,105,131,105v47,0,91,-18,130,-55r87,77v-54,67,-127,100,-219,100v-160,0,-280,-117,-280,-279v0,-151,114,-279,265,-279xm420,-310v-8,-63,-46,-114,-113,-114v-68,0,-106,51,-116,114r229,0xm305,-661r-79,66r-115,0r123,-157r144,0r123,157r-117,0","w":613},"\u00eb":{"d":"307,-546v179,0,276,145,259,331r-373,0v13,64,58,105,131,105v47,0,91,-18,130,-55r87,77v-54,67,-127,100,-219,100v-160,0,-280,-117,-280,-279v0,-151,114,-279,265,-279xm420,-310v-8,-63,-46,-114,-113,-114v-68,0,-106,51,-116,114r229,0xm486,-595r-146,0r0,-135r146,0r0,135xm272,-595r-146,0r0,-135r146,0r0,135","w":613},"\u00ec":{"d":"227,0r-152,0r0,-536r152,0r0,536xm217,-595r-116,0r-128,-120r131,-57","w":302},"\u00ed":{"d":"227,0r-152,0r0,-536r152,0r0,536xm201,-595r-116,0r113,-177r131,57","w":302},"\u00ee":{"d":"227,0r-152,0r0,-536r152,0r0,536xm150,-661r-79,66r-115,0r123,-157r144,0r123,157r-117,0","w":302},"\u00ef":{"d":"227,0r-152,0r0,-536r152,0r0,536xm331,-595r-146,0r0,-135r146,0r0,135xm117,-595r-146,0r0,-135r146,0r0,135","w":302},"\u00f0":{"d":"42,-251v0,-135,95,-237,229,-235v42,0,83,11,123,32r-87,-116r-114,47r-56,-75r115,-46r-64,-86r171,0r23,33r100,-41r55,75r-102,41v48,71,121,158,149,238v14,38,20,78,20,121v1,157,-119,275,-285,275v-152,0,-277,-115,-277,-263xm324,-116v78,0,132,-56,132,-132v0,-73,-57,-130,-133,-130v-77,0,-133,55,-133,130v0,74,58,132,134,132","w":648},"\u00f1":{"d":"377,-546v117,-1,182,79,182,199r0,347r-152,0r0,-299v1,-66,-30,-109,-92,-109v-62,0,-95,43,-95,109r0,299r-152,0r0,-536r152,0r0,76v45,-57,97,-86,157,-86xm384,-709v37,-2,42,-20,57,-49r81,25v-23,76,-43,131,-124,138v-33,3,-126,-39,-150,-39v-37,2,-42,20,-57,49r-81,-25v23,-76,43,-131,124,-138v33,-3,126,39,150,39"},"\u00f2":{"d":"333,-546v159,0,289,123,289,279v0,155,-133,279,-291,279v-159,0,-289,-123,-289,-279v0,-155,133,-279,291,-279xm333,-119v83,0,139,-65,139,-148v0,-80,-60,-148,-141,-148v-83,0,-139,65,-139,148v0,80,60,148,141,148xm390,-595r-116,0r-128,-120r131,-57","w":664},"\u00f3":{"d":"333,-546v159,0,289,123,289,279v0,155,-133,279,-291,279v-159,0,-289,-123,-289,-279v0,-155,133,-279,291,-279xm333,-119v83,0,139,-65,139,-148v0,-80,-60,-148,-141,-148v-83,0,-139,65,-139,148v0,80,60,148,141,148xm390,-595r-116,0r113,-177r131,57","w":664},"\u00f4":{"d":"333,-546v159,0,289,123,289,279v0,155,-133,279,-291,279v-159,0,-289,-123,-289,-279v0,-155,133,-279,291,-279xm333,-119v83,0,139,-65,139,-148v0,-80,-60,-148,-141,-148v-83,0,-139,65,-139,148v0,80,60,148,141,148xm331,-661r-79,66r-115,0r123,-157r144,0r123,157r-117,0","w":664},"\u00f5":{"d":"333,-546v159,0,289,123,289,279v0,155,-133,279,-291,279v-159,0,-289,-123,-289,-279v0,-155,133,-279,291,-279xm333,-119v83,0,139,-65,139,-148v0,-80,-60,-148,-141,-148v-83,0,-139,65,-139,148v0,80,60,148,141,148xm400,-709v37,-2,42,-20,57,-49r81,25v-23,76,-43,131,-124,138v-33,3,-126,-39,-150,-39v-37,2,-42,20,-57,49r-81,-25v23,-76,43,-131,124,-138v33,-3,126,39,150,39","w":664},"\u00f6":{"d":"333,-546v159,0,289,123,289,279v0,155,-133,279,-291,279v-159,0,-289,-123,-289,-279v0,-155,133,-279,291,-279xm333,-119v83,0,139,-65,139,-148v0,-80,-60,-148,-141,-148v-83,0,-139,65,-139,148v0,80,60,148,141,148xm512,-595r-146,0r0,-135r146,0r0,135xm298,-595r-146,0r0,-135r146,0r0,135","w":664},"\u00f8":{"d":"42,-266v0,-155,133,-280,291,-280v52,0,100,12,143,35r28,-30r133,0r-81,93v44,51,66,111,66,180v0,155,-133,280,-291,280v-51,0,-99,-12,-144,-35r-27,28r-133,0r80,-92v-43,-51,-65,-110,-65,-179xm388,-407v-102,-44,-200,35,-200,139v0,25,5,48,16,71xm277,-126v129,52,244,-81,183,-211","w":664},"\u00f9":{"d":"308,-128v62,0,95,-43,95,-109r0,-299r152,0r0,536r-152,0r0,-76v-45,57,-97,86,-157,86v-117,1,-182,-79,-182,-199r0,-347r152,0r0,299v-1,66,30,109,92,109xm385,-595r-116,0r-128,-120r131,-57"},"\u00fa":{"d":"308,-128v62,0,95,-43,95,-109r0,-299r152,0r0,536r-152,0r0,-76v-45,57,-97,86,-157,86v-117,1,-182,-79,-182,-199r0,-347r152,0r0,299v-1,66,30,109,92,109xm353,-595r-116,0r113,-177r131,57"},"\u00fb":{"d":"308,-128v62,0,95,-43,95,-109r0,-299r152,0r0,536r-152,0r0,-76v-45,57,-97,86,-157,86v-117,1,-182,-79,-182,-199r0,-347r152,0r0,299v-1,66,30,109,92,109xm310,-661r-79,66r-115,0r123,-157r144,0r123,157r-117,0"},"\u00fc":{"d":"308,-128v62,0,95,-43,95,-109r0,-299r152,0r0,536r-152,0r0,-76v-45,57,-97,86,-157,86v-117,1,-182,-79,-182,-199r0,-347r152,0r0,299v-1,66,30,109,92,109xm491,-595r-146,0r0,-135r146,0r0,135xm277,-595r-146,0r0,-135r146,0r0,135"},"\u00fd":{"d":"578,-536r-206,549v-38,94,-65,150,-176,150v-48,0,-93,-12,-135,-37r51,-110v44,27,95,33,118,-14r-210,-538r161,0r122,365r117,-365r158,0xm345,-595r-116,0r113,-177r131,57","w":600},"\u00fe":{"d":"387,-546v142,1,244,121,244,278v0,158,-101,277,-244,278v-67,0,-122,-27,-167,-80r0,230r-152,0r0,-890r152,0r0,271v43,-58,98,-87,167,-87xm348,-119v76,1,131,-68,131,-149v0,-82,-55,-149,-131,-149v-77,0,-130,67,-130,149v0,83,53,149,130,149","w":675},"\u00ff":{"d":"578,-536r-206,549v-38,94,-65,150,-176,150v-48,0,-93,-12,-135,-37r51,-110v44,27,95,33,118,-14r-210,-538r161,0r122,365r117,-365r158,0xm480,-595r-146,0r0,-135r146,0r0,135xm266,-595r-146,0r0,-135r146,0r0,135","w":600},"\u0152":{"d":"53,-349v0,-201,165,-351,372,-351r592,0r0,137r-350,0r0,142r305,0r0,137r-305,0r0,147r355,0r0,137r-597,0v-208,5,-372,-148,-372,-349xm214,-351v0,123,88,214,211,212r89,0r0,-422r-89,0v-123,-2,-211,87,-211,210","w":1075},"\u0153":{"d":"731,-546v176,0,272,148,255,331r-373,0v16,70,60,105,131,105v47,0,91,-18,130,-55r87,77v-54,67,-127,100,-219,100v-91,0,-161,-32,-210,-95v-53,63,-123,95,-210,95v-149,0,-280,-128,-280,-278v0,-152,133,-280,286,-280v85,0,154,31,207,94v49,-63,114,-94,196,-94xm840,-310v-8,-63,-46,-114,-113,-114v-68,0,-106,51,-116,114r229,0xm328,-119v81,0,134,-67,134,-147v0,-80,-57,-149,-136,-149v-81,0,-134,67,-134,147v0,80,57,149,136,149","w":1033},"\u0178":{"d":"704,-700r-269,421r0,279r-154,0r0,-276r-269,-424r180,0r167,281r170,-281r175,0xm538,-755r-146,0r0,-135r146,0r0,135xm324,-755r-146,0r0,-135r146,0r0,135","w":716},"\u02c6":{"d":"249,-661r-79,66r-115,0r123,-157r144,0r123,157r-117,0","w":500},"\u02dc":{"d":"318,-709v37,-2,42,-20,57,-49r81,25v-23,76,-43,131,-124,138v-33,3,-126,-39,-150,-39v-37,2,-42,20,-57,49r-81,-25v23,-76,43,-131,124,-138v33,-3,126,39,150,39","w":500},"\u2013":{"d":"478,-239r-428,0r0,-142r428,0r0,142","w":528},"\u2014":{"d":"848,-239r-798,0r0,-142r798,0r0,142","w":898},"\u2018":{"d":"255,-642v-70,8,-104,38,-98,99r62,0r0,160r-162,0r0,-135v0,-128,61,-183,185,-187","w":286},"\u2019":{"d":"31,-441v70,-8,104,-38,98,-99r-62,0r0,-160r162,0r0,135v0,128,-61,183,-185,187","w":286},"\u201a":{"d":"26,99v70,-8,104,-38,98,-99r-62,0r0,-160r162,0r0,135v0,128,-61,183,-185,187","w":286},"\u201c":{"d":"509,-642v-70,8,-104,38,-98,99r62,0r0,160r-162,0r0,-135v0,-128,61,-183,185,-187xm255,-642v-70,8,-104,38,-98,99r62,0r0,160r-162,0r0,-135v0,-128,61,-183,185,-187","w":540},"\u201d":{"d":"285,-441v70,-8,104,-38,98,-99r-62,0r0,-160r162,0r0,135v0,128,-61,183,-185,187xm31,-441v70,-8,104,-38,98,-99r-62,0r0,-160r162,0r0,135v0,128,-61,183,-185,187","w":540},"\u201e":{"d":"280,99v70,-8,104,-38,98,-99r-62,0r0,-160r162,0r0,135v0,128,-61,183,-185,187xm26,99v70,-8,104,-38,98,-99r-62,0r0,-160r162,0r0,135v0,128,-61,183,-185,187","w":540},"\u2022":{"d":"250,-501v81,0,149,69,149,149v0,81,-69,149,-149,149v-81,0,-149,-69,-149,-149v0,-81,69,-149,149,-149","w":500},"\u2026":{"d":"778,0r-158,0r0,-156r158,0r0,156xm499,0r-158,0r0,-156r158,0r0,156xm220,0r-158,0r0,-156r158,0r0,156","w":840},"\u2039":{"d":"209,-496r116,56r-130,171r130,171r-116,58r-168,-224r0,-8","w":373},"\u203a":{"d":"164,-40r-116,-56r130,-171r-130,-171r116,-58r168,224r0,8","w":373},"\u2122":{"d":"587,-600r-85,135r-6,0r-85,-135r0,208r-66,0r0,-308r74,0r81,130r81,-130r72,0r0,308r-66,0r0,-208xm188,-638r0,246r-70,0r0,-246r-92,0r0,-62r254,0r0,62r-92,0","w":690}}});
