/*!
 * The following copyright notice may not be removed under any circumstances.
 * 
 * Copyright:
 * HTF Gotham  Copr. 2000 The Hoefler Type Foundry, Inc. Info: www.typography.com
 */
Cufon.registerFont({"w":790,"face":{"font-family":"Gotham","font-weight":500,"font-stretch":"normal","units-per-em":"1000","panose-1":"2 0 6 3 4 0 0 2 0 4","ascent":"800","descent":"-200","x-height":"12","bbox":"-21 -907 1659 710","underline-thickness":"20","underline-position":"-133","unicode-range":"U+0020-U+2122"},"glyphs":{" ":{"w":300},"!":{"d":"91,-700r90,0r0,57r-24,445r-43,0r-23,-445r0,-57xm182,0r-92,0r0,-105r92,0r0,105","w":271},"\"":{"d":"260,-428r31,-272r92,0r0,5r-81,267r-42,0xm65,-428r30,-272r93,0r0,5r-81,267r-42,0","w":440},"#":{"d":"654,-458r-120,0r-37,212r118,0r0,69r-129,0r-31,177r-70,0r30,-177r-190,0r-31,177r-70,0r30,-177r-109,0r0,-69r121,0r37,-212r-119,0r0,-69r130,0r30,-173r70,0r-29,173r190,0r30,-173r70,0r-29,173r108,0r0,69xm463,-458r-190,0r-36,212r190,0","w":700},"$":{"d":"82,-515v0,-109,99,-182,210,-185r0,-58r64,0r0,60v67,6,130,33,191,80r-43,60v-45,-39,-96,-63,-151,-72r0,246v76,17,131,41,165,72v34,31,51,72,51,123v0,114,-98,184,-213,189r0,98r-64,0r0,-100v-86,-8,-165,-42,-236,-103r45,-60v63,56,127,88,194,95r0,-250v-75,-18,-129,-42,-163,-72v-34,-30,-50,-71,-50,-123xm295,-633v-74,1,-135,44,-136,113v0,31,10,55,29,74v19,19,54,35,107,48r0,-235xm353,-67v76,-2,138,-44,139,-117v0,-31,-10,-56,-30,-75v-20,-19,-56,-34,-109,-47r0,239","w":636},"%":{"d":"212,-708v92,0,157,85,157,178v0,94,-66,180,-159,180v-92,0,-158,-85,-158,-178v0,-94,67,-180,160,-180xm709,-700r-513,700r-72,0r514,-700r71,0xm624,-350v92,0,157,84,157,178v0,94,-66,180,-159,180v-92,0,-157,-85,-157,-178v0,-94,66,-180,159,-180xm212,-406v57,0,91,-60,91,-122v0,-63,-37,-124,-93,-124v-58,0,-91,60,-91,122v0,63,37,124,93,124xm624,-48v58,0,91,-60,91,-122v0,-63,-37,-124,-93,-124v-57,0,-91,60,-91,122v0,63,37,124,93,124","w":834},"&":{"d":"329,-712v93,0,170,69,170,159v0,83,-55,144,-165,183r160,163v30,-43,58,-95,84,-156r65,30v-35,75,-69,134,-101,176r122,125r-60,46r-110,-113v-67,73,-144,109,-229,109v-122,0,-220,-78,-220,-197v0,-91,56,-159,169,-203v-40,-49,-68,-82,-70,-155v-2,-97,83,-167,185,-167xm326,-647v-83,0,-133,87,-91,161v10,19,28,42,55,71v90,-31,135,-75,135,-134v0,-56,-43,-98,-99,-98xm125,-190v-3,77,66,133,146,133v61,0,120,-30,175,-91r-187,-193v-73,27,-131,70,-134,151","w":696},"'":{"d":"65,-428r30,-272r94,0r0,5r-81,267r-43,0","w":245},"(":{"d":"378,-664v-155,99,-232,224,-232,377v0,153,77,278,232,377r-33,51v-185,-104,-277,-247,-277,-428v0,-181,92,-324,277,-428","w":434},")":{"d":"56,-664r33,-51v185,104,277,247,277,428v0,181,-92,324,-277,428r-33,-51v155,-99,232,-224,232,-377v0,-153,-77,-278,-232,-377","w":434},"*":{"d":"361,-496r-27,47r-103,-73r10,125r-52,0r10,-125r-103,73r-27,-47r116,-53r-116,-54r27,-46r103,72r-10,-125r52,0r-10,125r103,-72r27,46r-116,54","w":430},"+":{"d":"283,-388r0,-206r74,0r0,206r208,0r0,72r-208,0r0,206r-74,0r0,-206r-208,0r0,-72r208,0","w":640},",":{"d":"46,87v48,-19,69,-42,67,-87r-36,0r0,-105r92,0v-1,68,6,146,-27,182v-19,20,-45,36,-84,45","w":245},"-":{"d":"343,-260r-278,0r0,-81r278,0r0,81","w":408},".":{"d":"169,0r-92,0r0,-105r92,0r0,105","w":245},"\/":{"d":"443,-798r71,0r-464,926r-71,0","w":508},"0":{"d":"359,-712v182,0,294,173,294,361v0,188,-114,363,-296,363v-181,0,-295,-173,-295,-361v0,-188,116,-363,297,-363xm359,-60v135,0,212,-146,212,-289v0,-144,-79,-291,-214,-291v-134,0,-213,146,-213,289v0,144,80,291,215,291","w":715},"1":{"d":"28,-646r171,-59r58,0r0,705r-78,0r0,-623r-132,41","w":358},"2":{"d":"448,-505v2,-78,-64,-136,-141,-134v-98,3,-137,52,-188,120r-58,-42v63,-89,116,-146,252,-149v121,-3,219,82,217,199v0,49,-13,92,-39,130v-67,94,-229,219,-325,309r371,0r0,72r-489,0r0,-61r254,-224v55,-49,93,-89,114,-121v21,-32,32,-64,32,-99","w":599},"3":{"d":"465,-197v-2,-110,-115,-144,-241,-136r-16,-47r221,-249r-342,0r0,-71r447,0r0,58r-220,244v124,10,231,69,231,198v0,124,-108,212,-234,212v-110,0,-197,-42,-261,-125r57,-51v57,69,125,104,205,104v83,0,155,-55,153,-137","w":613},"4":{"d":"439,-705r69,0r0,473r109,0r0,66r-109,0r0,166r-76,0r0,-166r-369,0r-20,-57xm432,-232r0,-361r-294,361r294,0","w":671},"5":{"d":"473,-216v0,-91,-78,-148,-174,-148v-48,0,-97,13,-147,40r-53,-35r20,-341r403,0r0,73r-334,0r-15,224v47,-21,93,-31,138,-31v134,-2,242,83,242,215v0,138,-109,231,-250,231v-93,0,-176,-37,-250,-111r52,-57v66,64,132,96,199,96v95,0,169,-64,169,-156","w":612},"6":{"d":"61,-331v0,-201,102,-382,291,-381v73,0,142,27,207,80r-46,61v-103,-91,-241,-99,-315,17v-37,57,-56,132,-55,223v49,-71,115,-107,199,-107v129,0,242,88,242,216v0,134,-114,234,-251,234v-126,0,-218,-78,-251,-178v-14,-41,-21,-96,-21,-165xm334,-58v97,0,169,-68,169,-161v0,-90,-77,-151,-171,-151v-93,0,-175,68,-175,154v0,93,81,158,177,158","w":647},"7":{"d":"68,-628r0,-72r475,0r0,59r-318,641r-88,0r316,-628r-385,0","w":596},"8":{"d":"434,-362v76,29,143,79,144,172v2,126,-127,200,-263,200v-136,0,-263,-73,-263,-199v0,-93,68,-145,144,-173v-80,-37,-120,-91,-120,-162v0,-112,121,-186,239,-186v119,0,240,74,239,186v0,71,-40,125,-120,162xm315,-390v83,0,161,-50,160,-129v0,-74,-79,-122,-160,-122v-83,0,-160,46,-160,122v-1,79,77,129,160,129xm315,-59v98,0,183,-47,183,-132v0,-85,-91,-134,-183,-134v-93,0,-183,49,-183,134v0,84,86,132,183,132","w":630},"9":{"d":"63,-473v0,-136,112,-239,252,-239v75,0,136,24,184,72v58,58,87,149,87,272v0,112,-28,203,-81,274v-104,139,-293,136,-426,20r46,-61v57,50,114,75,172,75v139,-2,214,-149,208,-307v-47,75,-113,112,-198,112v-136,0,-244,-87,-244,-218xm316,-323v95,0,174,-71,174,-159v0,-93,-81,-160,-178,-160v-97,0,-168,72,-168,165v0,92,76,154,172,154","w":647},":":{"d":"174,-412r-92,0r0,-105r92,0r0,105xm174,0r-92,0r0,-105r92,0r0,105","w":255},";":{"d":"174,-412r-92,0r0,-105r92,0r0,105xm51,87v48,-19,69,-42,67,-87r-36,0r0,-105r92,0v-1,68,7,146,-26,182v-19,20,-46,36,-85,45","w":255},"<":{"d":"72,-385r469,-233r0,77r-385,188r385,189r0,78r-469,-233r0,-66","w":640},"=":{"d":"90,-506r460,0r0,74r-460,0r0,-74xm90,-272r460,0r0,74r-460,0r0,-74","w":640},">":{"d":"568,-319r-469,233r0,-77r385,-188r-385,-189r0,-78r469,233r0,66","w":640},"?":{"d":"265,-709v125,0,224,80,224,199v0,126,-94,188,-208,204r-10,108r-51,0r-15,-162r5,-5v112,-1,197,-42,199,-142v2,-77,-64,-131,-146,-131v-67,0,-128,31,-182,94r-51,-49v64,-77,142,-116,235,-116xm291,0r-92,0r0,-105r92,0r0,105","w":537},"@":{"d":"53,-274v0,-235,202,-438,438,-438v121,0,224,39,309,118v85,79,127,172,127,278v0,138,-70,242,-187,245v-71,2,-121,-33,-140,-84v-47,56,-102,84,-165,84v-100,1,-179,-78,-179,-182v0,-127,112,-249,231,-249v66,0,115,28,146,83r13,-69r67,9r-40,227v-5,26,-7,46,-7,61v0,51,33,83,85,81v92,-3,140,-94,140,-206v0,-95,-39,-179,-117,-252v-78,-73,-172,-110,-283,-110v-222,0,-402,185,-402,404v0,224,181,402,410,402v89,0,172,-23,249,-68r16,27v-82,50,-170,75,-265,75v-244,0,-446,-197,-446,-436xm450,-133v85,0,164,-92,164,-180v0,-71,-52,-127,-122,-127v-88,0,-164,88,-164,182v0,75,49,125,122,125","w":980},"A":{"d":"432,-705r319,705r-85,0r-82,-185r-381,0r-83,185r-81,0r319,-705r74,0xm553,-256r-159,-357r-160,357r319,0"},"B":{"d":"664,-192v-1,130,-114,192,-254,192r-311,0r0,-700r298,0v126,-2,227,59,228,175v0,77,-37,131,-111,163v100,30,150,87,150,170xm545,-514v-1,-79,-67,-115,-155,-115r-213,0r0,241r207,0v90,1,162,-40,161,-126xm584,-197v0,-90,-82,-122,-186,-121r-221,0r0,247r235,0v96,1,172,-39,172,-126","w":722},"C":{"d":"421,-61v108,-2,161,-43,226,-101r52,51v-75,73,-144,120,-280,123v-198,4,-351,-163,-351,-361v0,-198,155,-367,354,-363v131,2,200,44,273,111r-54,58v-67,-64,-141,-96,-220,-96v-154,0,-271,131,-271,288v0,157,118,293,271,290","w":738},"D":{"d":"342,-700v208,-5,372,148,372,349v0,201,-165,351,-372,351r-243,0r0,-700r243,0xm342,-73v166,4,290,-116,290,-276v0,-160,-124,-282,-290,-278r-164,0r0,554r164,0","w":782},"E":{"d":"605,-700r0,72r-427,0r0,239r382,0r0,72r-382,0r0,245r432,0r0,72r-511,0r0,-700r506,0","w":670},"F":{"d":"602,-700r0,73r-424,0r0,250r379,0r0,72r-379,0r0,305r-79,0r0,-700r503,0","w":656},"G":{"d":"150,-351v0,167,110,292,277,292v77,0,145,-23,202,-70r0,-174r-213,0r0,-71r289,0r0,279v-80,71,-174,107,-281,107v-209,0,-356,-156,-356,-361v0,-195,152,-367,351,-363v122,3,190,35,261,93r-51,60v-61,-53,-132,-80,-213,-80v-152,0,-266,135,-266,288","w":784},"H":{"d":"582,-315r-404,0r0,315r-79,0r0,-700r79,0r0,311r404,0r0,-311r79,0r0,700r-79,0r0,-315","w":760},"I":{"d":"106,-700r79,0r0,700r-79,0r0,-700","w":291},"J":{"d":"248,-63v89,0,137,-70,137,-168r0,-469r80,0r0,468v3,147,-81,241,-218,242v-93,0,-165,-41,-216,-124r57,-49v41,58,74,100,160,100","w":553},"K":{"d":"382,-394r313,394r-99,0r-269,-339r-149,151r0,188r-79,0r0,-700r79,0r0,418r402,-418r102,0","w":719},"L":{"d":"99,0r0,-700r79,0r0,627r394,0r0,73r-473,0","w":619},"M":{"d":"690,-567r-255,375r-4,0r-255,-374r0,566r-77,0r0,-700r80,0r255,382r255,-382r80,0r0,700r-79,0r0,-567","w":868},"N":{"d":"614,-139r0,-561r77,0r0,700r-63,0r-452,-574r0,574r-77,0r0,-700r74,0"},"O":{"d":"426,-712v201,0,356,165,356,361v0,196,-157,363,-358,363v-201,0,-356,-165,-356,-361v0,-196,157,-363,358,-363xm426,-61v156,0,274,-132,274,-288v0,-156,-120,-290,-276,-290v-156,0,-274,132,-274,288v0,156,120,290,276,290","w":850},"P":{"d":"361,-700v149,-2,262,80,262,223v0,148,-126,230,-275,230r-170,0r0,247r-79,0r0,-700r262,0xm351,-319v106,2,192,-56,192,-155v0,-104,-80,-154,-188,-153r-177,0r0,308r173,0","w":668},"Q":{"d":"426,-712v201,0,356,165,356,361v0,91,-28,169,-84,236r93,77r-54,59r-92,-84v-64,50,-138,75,-221,75v-201,0,-356,-165,-356,-361v0,-196,157,-363,358,-363xm150,-351v0,156,120,290,276,290v61,0,115,-18,161,-53r-130,-111r53,-59r129,117v41,-53,61,-113,61,-182v0,-156,-120,-290,-276,-290v-156,0,-274,132,-274,288","w":850},"R":{"d":"653,-491v0,120,-84,186,-190,205r215,286r-97,0r-203,-272r-200,0r0,272r-79,0r0,-700r301,0v142,-2,253,75,253,209xm393,-343v99,1,180,-51,180,-145v-1,-94,-76,-139,-179,-139r-216,0r0,284r215,0","w":723},"S":{"d":"309,-639v-80,0,-148,42,-149,114v0,35,14,63,40,83v26,20,76,38,150,54v79,17,138,41,174,72v36,31,54,74,54,127v1,125,-109,199,-239,199v-107,0,-203,-37,-286,-112r49,-58v67,60,128,97,240,99v84,2,155,-43,156,-120v0,-35,-13,-62,-38,-82v-25,-20,-73,-37,-144,-52v-83,-18,-143,-43,-180,-73v-37,-30,-55,-73,-55,-130v-1,-117,107,-192,230,-192v93,0,175,29,246,86r-46,61v-62,-51,-129,-76,-202,-76","w":640},"T":{"d":"364,-627r0,627r-80,0r0,-627r-235,0r0,-73r550,0r0,73r-235,0","w":648},"U":{"d":"381,-62v137,0,211,-87,211,-231r0,-407r79,0r0,401v3,192,-108,310,-292,310v-180,1,-291,-117,-291,-304r0,-407r79,0r0,402v-2,144,75,236,214,236","w":759},"V":{"d":"376,-97r250,-603r85,0r-301,705r-70,0r-301,-705r88,0","w":750},"W":{"d":"331,-117r192,-585r65,0r192,585r200,-583r83,0r-250,705r-67,0r-192,-568r-193,568r-66,0r-250,-705r86,0","w":1107},"X":{"d":"679,0r-94,0r-224,-301r-224,301r-91,0r269,-357r-259,-343r93,0r215,286r213,-286r92,0r-259,342","w":725},"Y":{"d":"398,-278r0,278r-80,0r0,-277r-291,-423r96,0r236,350r238,-350r92,0","w":716},"Z":{"d":"520,-629r-438,0r0,-71r546,0r0,53r-454,576r454,0r0,71r-561,0r0,-53","w":693},"[":{"d":"380,-700r0,60r-213,0r0,710r213,0r0,60r-286,0r0,-830r286,0","w":439},"\\":{"d":"65,-798r464,926r-71,0r-464,-926r71,0","w":508},"]":{"d":"59,-700r286,0r0,830r-286,0r0,-60r214,0r0,-710r-214,0r0,-60","w":439},"^":{"d":"249,-647r-118,154r-66,0r155,-209r60,0r155,209r-68,0","w":500},"_":{"d":"-2,97r604,0r0,63r-604,0r0,-63","w":600},"`":{"d":"257,-595r-113,-108r80,-37r95,145r-62,0","w":500},"a":{"d":"427,-297v6,-107,-52,-159,-154,-159v-49,0,-102,13,-157,38r-23,-63v63,-29,125,-43,188,-43v139,0,220,71,220,208r0,316r-74,0r0,-78v-45,59,-108,89,-187,89v-100,1,-195,-61,-193,-162v2,-116,98,-169,221,-168v54,0,107,7,159,22xm255,-50v88,0,174,-56,173,-140r0,-50v-51,-15,-101,-22,-152,-22v-85,-1,-149,33,-151,108v-1,66,62,104,130,104","w":579},"b":{"d":"361,-528v138,0,247,119,247,269v0,150,-109,270,-247,270v-81,0,-147,-37,-198,-110r0,99r-77,0r0,-730r77,0r0,317v52,-77,118,-115,198,-115xm347,-58v108,0,182,-85,182,-200v0,-112,-77,-201,-182,-201v-102,0,-187,92,-187,200v0,109,85,201,187,201","w":664},"c":{"d":"133,-259v0,109,83,202,190,202v57,0,110,-26,158,-77r49,46v-60,67,-130,100,-211,100v-145,0,-265,-125,-265,-269v0,-145,119,-271,265,-271v80,0,149,31,207,92r-51,54v-49,-52,-102,-78,-157,-78v-104,0,-185,95,-185,201","w":571},"d":{"d":"56,-258v0,-150,109,-270,247,-270v81,0,147,37,198,110r0,-312r77,0r0,730r-77,0r0,-104v-52,77,-118,115,-198,115v-138,0,-247,-119,-247,-269xm317,-58v102,0,187,-92,187,-201v0,-109,-85,-200,-187,-200v-108,0,-182,85,-182,200v0,112,77,201,182,201","w":664},"e":{"d":"302,-528v156,0,252,132,240,298r-410,0v7,99,81,174,182,175v62,0,116,-24,163,-73r48,43v-58,65,-129,97,-213,97v-146,0,-258,-119,-258,-270v0,-144,107,-270,248,-270xm465,-287v-7,-95,-64,-176,-165,-176v-95,0,-161,84,-168,176r333,0","w":592},"f":{"d":"115,-561v-1,-107,52,-173,156,-173v33,0,61,4,85,13r0,67v-31,-9,-56,-13,-75,-13v-60,0,-90,37,-90,110r0,42r164,0r0,66r-163,0r0,449r-77,0r0,-449r-71,0r0,-67r71,0r0,-45","w":367},"g":{"d":"56,-283v0,-138,113,-246,243,-245v83,0,150,35,202,104r0,-93r77,0r0,427v2,163,-102,252,-263,252v-87,0,-166,-24,-235,-72r35,-60v61,44,127,66,199,66v116,0,189,-67,188,-184r0,-61v-55,73,-122,109,-203,109v-131,1,-243,-105,-243,-243xm314,-108v98,0,190,-76,190,-176v0,-102,-90,-176,-190,-176v-100,0,-179,73,-179,175v0,100,81,177,179,177","w":664},"h":{"d":"318,-458v-90,0,-155,70,-155,162r0,296r-77,0r0,-730r77,0r0,303v41,-67,100,-101,177,-101v122,-2,198,84,198,207r0,321r-77,0r0,-302v1,-94,-51,-156,-143,-156","w":616},"i":{"d":"176,-630r-88,0r0,-85r88,0r0,85xm170,0r-77,0r0,-517r77,0r0,517","w":263},"j":{"d":"176,-630r-88,0r0,-85r88,0r0,85xm170,30v5,104,-72,149,-174,128r0,-63v12,2,25,3,38,3v39,0,59,-23,59,-69r0,-546r77,0r0,547","w":263},"k":{"d":"321,-295r224,295r-92,0r-185,-241r-105,106r0,135r-77,0r0,-730r77,0r0,504r279,-291r96,0","w":569},"l":{"d":"170,0r-77,0r0,-730r77,0r0,730","w":263},"m":{"d":"307,-458v-85,0,-144,74,-144,163r0,295r-77,0r0,-517r77,0r0,87v43,-65,99,-98,167,-98v77,0,133,34,166,103v45,-69,105,-103,182,-103v120,-1,192,85,192,208r0,320r-77,0r0,-302v1,-94,-45,-156,-134,-156v-85,0,-143,68,-143,160r0,298r-76,0r0,-304v1,-90,-47,-154,-133,-154","w":951},"n":{"d":"318,-458v-90,0,-155,70,-155,162r0,296r-77,0r0,-517r77,0r0,90v41,-67,100,-101,177,-101v122,-2,198,84,198,207r0,321r-77,0r0,-302v1,-94,-51,-156,-143,-156","w":616},"o":{"d":"324,-528v149,0,269,122,269,269v0,147,-123,271,-271,271v-149,0,-268,-122,-268,-269v0,-147,122,-271,270,-271xm324,-57v109,0,190,-91,190,-200v0,-109,-85,-203,-192,-203v-110,0,-189,91,-189,201v0,109,84,202,191,202","w":646},"p":{"d":"361,-528v138,0,247,119,247,269v0,150,-109,270,-247,270v-81,0,-147,-37,-198,-110r0,259r-77,0r0,-677r77,0r0,104v52,-77,118,-115,198,-115xm347,-58v108,0,182,-85,182,-200v0,-112,-77,-201,-182,-201v-102,0,-187,92,-187,200v0,109,85,201,187,201","w":664},"q":{"d":"56,-258v0,-150,109,-270,247,-270v81,0,147,37,198,110r0,-99r77,0r0,677r-77,0r0,-264v-52,77,-118,115,-198,115v-138,0,-247,-119,-247,-269xm317,-58v102,0,187,-92,187,-201v0,-109,-85,-200,-187,-200v-108,0,-182,85,-182,200v0,112,77,201,182,201","w":664},"r":{"d":"374,-443v-133,-2,-211,97,-211,237r0,206r-77,0r0,-517r77,0r0,135v36,-78,101,-146,211,-144r0,83","w":405},"s":{"d":"242,-461v-54,-1,-104,27,-100,77v5,63,81,71,133,89v80,28,164,48,166,150v2,98,-83,156,-184,155v-83,-1,-165,-35,-214,-76r39,-55v59,44,118,66,179,66v57,1,108,-29,107,-84v0,-23,-10,-41,-32,-54v-85,-53,-268,-42,-268,-185v0,-91,81,-148,176,-148v67,0,129,19,186,57r-35,58v-51,-33,-102,-50,-153,-50","w":498},"t":{"d":"259,9v-92,-1,-146,-49,-146,-146r0,-312r-72,0r0,-68r72,0r0,-156r77,0r0,156r164,0r0,68r-164,0r0,302v0,57,29,86,87,86v25,0,50,-6,75,-18r0,66v-28,15,-59,22,-93,22","w":404},"u":{"d":"298,-59v90,0,155,-70,155,-162r0,-296r76,0r0,517r-76,0r0,-90v-42,67,-101,101,-177,101v-122,2,-198,-84,-198,-207r0,-321r77,0r0,302v-1,94,51,156,143,156","w":616},"v":{"d":"294,-88r175,-429r83,0r-225,521r-68,0r-224,-521r85,0","w":587},"w":{"d":"463,-519r140,417r136,-415r80,0r-182,521r-67,0r-139,-408r-140,408r-68,0r-181,-521r82,0r136,415r139,-417r64,0","w":861},"x":{"d":"331,-265r204,265r-89,0r-160,-211r-161,211r-86,0r203,-263r-195,-254r88,0r153,200r153,-200r86,0","w":574},"y":{"d":"555,-517r-217,534v-22,53,-46,91,-73,113v-54,46,-142,40,-209,7r26,-61v42,22,105,31,140,-2v16,-14,32,-40,47,-76r-235,-515r85,0r188,431r166,-431r82,0","w":591},"z":{"d":"399,-452r-331,0r0,-65r436,0r0,49r-344,403r344,0r0,65r-448,0r0,-49","w":556},"{":{"d":"200,-437v-3,-86,-1,-164,44,-208v31,-30,87,-55,172,-70r12,51v-67,17,-108,38,-128,58v-31,31,-27,112,-27,178v0,84,-39,120,-104,141v67,23,104,55,104,141v0,66,-4,147,27,178v20,20,61,41,128,58r-12,51v-85,-15,-141,-40,-172,-70v-45,-44,-46,-121,-44,-208v3,-93,-45,-126,-144,-120r0,-60v98,5,147,-26,144,-120","w":483},"|":{"d":"184,128r-65,0r0,-926r65,0r0,926","w":303},"}":{"d":"283,-137v3,86,1,164,-44,208v-31,30,-87,55,-172,70r-13,-51v67,-17,109,-38,129,-58v31,-31,27,-112,27,-178v0,-84,39,-120,104,-141v-67,-23,-104,-55,-104,-141v0,-66,4,-147,-27,-178v-20,-20,-62,-41,-129,-58r13,-51v85,15,141,40,172,70v45,44,46,121,44,208v-3,93,45,126,143,120r0,60v-98,-5,-146,27,-143,120","w":483},"~":{"d":"302,-315v35,-3,37,-19,52,-50r46,13v-18,62,-31,99,-94,106v-24,3,-114,-43,-134,-41v-35,2,-37,19,-52,50r-47,-13v18,-62,32,-99,95,-106v23,-2,114,43,134,41","w":473},"\u00a0":{"w":300},"\u00a1":{"d":"90,-700r92,0r0,105r-92,0r0,-105xm181,0r-90,0r0,-57r23,-445r43,0r24,445r0,57","w":271},"\u00a2":{"d":"58,-354v0,-148,122,-281,278,-271r15,-81r65,0r-18,90v47,11,91,39,132,84r-50,52v-36,-36,-69,-58,-99,-67r-75,391v77,9,123,-19,179,-75r48,45v-68,73,-136,109,-238,99r-18,93r-65,0r22,-106v-95,-32,-176,-133,-176,-254xm325,-556v-110,-3,-189,91,-189,200v0,88,51,158,115,186","w":581},"\u00a3":{"d":"371,-637v-93,-1,-141,68,-141,165r0,108r279,0r0,69r-279,0r0,225r355,0r0,70r-518,0r0,-46r84,-21r0,-228r-84,0r0,-69r84,0r0,-108v-1,-140,82,-238,221,-238v87,0,159,36,214,108r-61,48v-41,-48,-75,-82,-154,-83","w":644},"\u00a4":{"d":"430,12v-153,0,-253,-114,-283,-249r-91,0r0,-63r81,0v-3,-25,-3,-83,2,-108r-83,0r0,-62r94,0v33,-127,128,-242,275,-242v99,0,180,46,241,137r-60,43v-49,-64,-86,-109,-184,-109v-100,0,-165,84,-191,171r257,0r0,62r-270,0v-5,34,-5,64,-2,108r272,0r0,63r-259,0v25,95,95,178,204,178v92,0,132,-52,178,-115r57,40v-56,80,-116,146,-238,146","w":720},"\u00a5":{"d":"381,-266r0,88r205,0r0,62r-205,0r0,116r-76,0r0,-116r-205,0r0,-62r205,0r0,-88r-205,0r0,-62r181,0r-254,-372r94,0r223,342r225,-342r90,0r-255,372r182,0r0,62r-205,0","w":686},"\u00a7":{"d":"302,-644v-57,-1,-101,20,-103,67v0,19,11,36,35,50v24,14,67,28,128,43v76,18,130,38,161,59v31,21,47,49,47,84v-2,70,-63,104,-132,115v49,25,74,59,74,102v-1,90,-85,134,-184,134v-91,0,-167,-32,-229,-95r50,-48v53,51,113,77,181,77v57,1,101,-20,103,-67v0,-19,-11,-36,-35,-50v-24,-14,-67,-28,-128,-43v-76,-18,-130,-38,-161,-59v-31,-21,-47,-49,-47,-84v2,-70,63,-104,132,-115v-49,-25,-74,-59,-74,-102v1,-90,85,-134,184,-134v91,0,167,32,229,95r-50,48v-53,-51,-113,-77,-181,-77xm387,-263v54,0,107,-25,109,-70v0,-18,-12,-33,-32,-48v-31,-23,-160,-56,-219,-56v-54,0,-107,25,-109,70v0,18,12,33,32,48v32,23,158,56,219,56","w":632},"\u00a8":{"d":"383,-595r-90,0r0,-95r90,0r0,95xm207,-595r-90,0r0,-95r90,0r0,95","w":500},"\u00a9":{"d":"416,-712v195,0,361,167,361,361v0,194,-168,363,-363,363v-195,0,-361,-167,-361,-361v0,-194,168,-363,363,-363xm414,-19v181,0,330,-152,330,-332v0,-180,-148,-330,-328,-330v-181,0,-330,152,-330,332v0,180,148,330,328,330xm289,-356v0,75,59,144,132,142v38,0,75,-17,110,-50r36,35v-43,44,-92,66,-148,66v-103,0,-186,-89,-186,-192v0,-104,83,-192,188,-192v54,0,102,20,144,60r-37,40v-35,-33,-71,-50,-108,-50v-75,-2,-131,65,-131,141","w":830},"\u00aa":{"d":"191,-703v77,0,122,39,122,116r0,173r-49,0r0,-38v-24,29,-56,44,-96,44v-55,0,-107,-34,-107,-91v0,-93,116,-109,203,-83v3,-88,-96,-90,-164,-54r-15,-42v38,-17,73,-25,106,-25xm318,-289r-260,0r0,-47r260,0r0,47xm177,-450v44,0,88,-27,87,-70r0,-24v-56,-18,-149,-21,-151,43v-1,33,30,51,64,51","w":390},"\u00ab":{"d":"433,-476r58,33r-135,183r135,185r-58,34r-162,-214r0,-8xm210,-476r59,33r-135,183r135,185r-59,34r-162,-214r0,-8","w":550},"\u00ad":{"d":"343,-260r-278,0r0,-81r278,0r0,81","w":408},"\u00ae":{"d":"416,-712v195,0,361,167,361,361v0,194,-168,363,-363,363v-195,0,-361,-167,-361,-361v0,-194,168,-363,363,-363xm414,-19v181,0,330,-152,330,-332v0,-180,-148,-330,-328,-330v-181,0,-330,152,-330,332v0,180,148,330,328,330xm439,-546v76,-1,140,40,140,112v0,63,-42,98,-96,110r115,149r-68,0r-107,-140r-95,0r0,140r-55,0r0,-371r166,0xm434,-364v49,0,88,-21,88,-67v0,-45,-37,-66,-85,-65r-109,0r0,132r106,0","w":830},"\u00af":{"d":"408,-600r-316,0r0,-67r316,0r0,67","w":500},"\u00b0":{"d":"229,-706v79,0,157,74,157,153v0,79,-78,153,-157,153v-79,0,-157,-74,-157,-153v0,-79,78,-153,157,-153xm229,-452v54,0,99,-48,99,-101v0,-53,-45,-101,-99,-101v-54,0,-99,48,-99,101v0,53,45,101,99,101","w":458},"\u00b1":{"d":"299,-712v123,0,229,73,228,188v0,79,-41,134,-122,165v94,31,141,87,141,168v1,121,-110,205,-240,203v-118,-2,-208,-56,-263,-126r58,-50v55,69,124,104,207,104v87,0,159,-49,158,-131v-1,-90,-85,-129,-187,-128r-72,0r0,-68r74,0v89,1,166,-45,166,-130v0,-76,-68,-123,-150,-123v-71,0,-131,33,-181,100r-58,-42v61,-87,142,-130,241,-130","w":604},"\u00b2":{"d":"307,639v-38,0,-72,-10,-101,-29v-29,-19,-58,-50,-87,-91r-58,42v34,51,70,88,108,113v38,24,86,36,144,36v63,0,115,-19,156,-56v41,-37,61,-85,61,-143v0,-49,-13,-92,-39,-130v-26,-38,-72,-86,-138,-143r-187,-166r371,0r0,-72r-489,0r0,61r254,224v55,49,93,89,114,121v21,31,32,64,32,99v0,40,-14,72,-41,97v-27,25,-61,37,-100,37","w":599},"\u00b3":{"d":"429,629r-342,0r0,71r447,0r0,-58r-220,-244v67,-5,123,-25,166,-58v43,-33,65,-79,65,-140v0,-62,-23,-113,-68,-153v-45,-39,-100,-59,-166,-59v-110,0,-197,42,-261,125r57,51v57,-69,125,-104,205,-104v43,0,80,13,109,38v29,25,44,58,44,99v0,43,-18,77,-54,101v-35,23,-83,35,-142,35r-45,0r-16,47","w":613},"\u00b4":{"d":"243,-595r-62,0r95,-145r80,37","w":500},"\u00b5":{"d":"426,-712v201,0,359,165,356,361v-2,122,-56,223,-129,281r172,165r0,6r-116,0r-132,-123v-47,23,-98,34,-153,34v-201,0,-356,-165,-356,-361v0,-196,157,-363,358,-363xm426,-61v156,0,274,-132,274,-288v0,-156,-120,-290,-276,-290v-156,0,-274,132,-274,288v0,156,120,290,276,290","w":850},"\u00b6":{"d":"48,-482v-1,-141,116,-220,264,-218r106,0r0,700r-80,0r0,-264v-159,4,-290,-70,-290,-218","w":510},"\u00b7":{"d":"169,-248r-92,0r0,-105r92,0r0,105","w":245},"\u00b8":{"d":"240,-10r61,0r-76,165r-75,-34","w":500},"\u00b9":{"d":"28,646r171,59r58,0r0,-705r-78,0r0,623r-132,-41","w":358},"\u00ba":{"d":"196,-705v80,0,146,69,146,148v0,81,-66,150,-148,150v-80,0,-146,-69,-146,-148v0,-81,66,-150,148,-150xm339,-289r-288,0r0,-47r288,0r0,47xm196,-455v53,0,92,-46,92,-100v0,-55,-41,-102,-94,-102v-53,0,-92,46,-92,100v0,54,41,102,94,102","w":390},"\u00bb":{"d":"340,-41r-59,-33r135,-184r-135,-184r59,-34r162,213r0,8xm117,-41r-58,-33r135,-184r-135,-184r58,-34r162,213r0,8","w":550},"\u00bc":{"d":"757,-758r76,0r-467,856r-76,0xm1226,705r69,0r0,-473r109,0r0,-66r-109,0r0,-166r-76,0r0,166r-369,0r-20,57xm1219,232r0,361r-294,-361r294,0xm28,646r171,59r58,0r0,-705r-78,0r0,623r-132,-41","w":1458},"\u00bd":{"d":"757,-758r76,0r-467,856r-76,0xm1094,639v-38,0,-72,-10,-101,-29v-29,-19,-58,-50,-87,-91r-58,42v34,51,70,88,108,113v38,24,86,36,144,36v63,0,115,-19,156,-56v41,-37,61,-85,61,-143v0,-49,-13,-92,-39,-130v-26,-38,-72,-86,-138,-143r-187,-166r371,0r0,-72r-489,0r0,61r254,224v55,49,93,89,114,121v21,31,32,64,32,99v0,40,-14,72,-41,97v-27,25,-61,37,-100,37xm28,646r171,59r58,0r0,-705r-78,0r0,623r-132,-41","w":1386},"\u00be":{"d":"1012,-758r76,0r-467,856r-76,0xm1481,705r69,0r0,-473r109,0r0,-66r-109,0r0,-166r-76,0r0,166r-369,0r-20,57xm1474,232r0,361r-294,-361r294,0xm429,629r-342,0r0,71r447,0r0,-58r-220,-244v67,-5,123,-25,166,-58v43,-33,65,-79,65,-140v0,-62,-23,-113,-68,-153v-45,-39,-100,-59,-166,-59v-110,0,-197,42,-261,125r57,51v57,-69,125,-104,205,-104v43,0,80,13,109,38v29,25,44,58,44,99v0,43,-18,77,-54,101v-35,23,-83,35,-142,35r-45,0r-16,47","w":1713},"\u00bf":{"d":"246,-700r92,0r0,105r-92,0r0,-105xm272,9v-126,0,-224,-79,-224,-199v0,-126,94,-188,208,-204r9,-108r51,0r16,162r-5,5v-112,1,-197,42,-199,142v-2,77,64,131,146,131v67,0,128,-31,181,-94r51,49v-64,77,-142,116,-234,116","w":537},"\u00c0":{"d":"432,-705r319,705r-85,0r-82,-185r-381,0r-83,185r-81,0r319,-705r74,0xm553,-256r-159,-357r-160,357r319,0xm363,-762r-113,-108r80,-37r95,145r-62,0"},"\u00c1":{"d":"432,-705r319,705r-85,0r-82,-185r-381,0r-83,185r-81,0r319,-705r74,0xm553,-256r-159,-357r-160,357r319,0xm427,-762r-62,0r95,-145r80,37"},"\u00c2":{"d":"432,-705r319,705r-85,0r-82,-185r-381,0r-83,185r-81,0r319,-705r74,0xm553,-256r-159,-357r-160,357r319,0xm394,-826r-75,67r-64,0r106,-131r68,0r106,131r-66,0"},"\u00c3":{"d":"432,-705r319,705r-85,0r-82,-185r-381,0r-83,185r-81,0r319,-705r74,0xm553,-256r-159,-357r-160,357r319,0xm460,-831v34,-2,37,-19,52,-49r47,13v-18,61,-33,99,-95,105v-24,3,-114,-42,-134,-40v-34,2,-37,19,-52,49r-47,-13v18,-61,33,-99,95,-105v24,-3,114,42,134,40"},"\u00c4":{"d":"432,-705r319,705r-85,0r-82,-185r-381,0r-83,185r-81,0r319,-705r74,0xm553,-256r-159,-357r-160,357r319,0xm528,-762r-90,0r0,-95r90,0r0,95xm352,-762r-90,0r0,-95r90,0r0,95"},"\u00c5":{"d":"395,-867v54,0,104,46,104,100v0,39,-18,68,-55,87r307,680r-85,0r-82,-185r-381,0r-83,185r-81,0r307,-680v-37,-19,-55,-48,-55,-87v0,-54,50,-100,104,-100xm395,-705v32,0,62,-30,62,-62v0,-32,-30,-62,-62,-62v-32,0,-62,30,-62,62v0,32,30,62,62,62xm553,-256r-159,-357r-160,357r319,0"},"\u00c6":{"d":"209,-185r-109,185r-83,0r411,-700r552,0r0,72r-409,0r0,239r364,0r0,72r-364,0r0,245r414,0r0,72r-494,0r0,-185r-282,0xm467,-630r-218,374r242,0r0,-374r-24,0","w":1045},"\u00c7":{"d":"421,-61v108,-2,161,-43,226,-101r52,51v-71,71,-138,116,-264,123r-66,143r-75,-34r77,-112v-170,-18,-303,-171,-303,-358v0,-198,155,-367,354,-363v131,2,200,44,273,111r-54,58v-67,-64,-141,-96,-220,-96v-154,0,-271,131,-271,288v0,157,118,293,271,290","w":738},"\u00c8":{"d":"605,-700r0,72r-427,0r0,239r382,0r0,72r-382,0r0,245r432,0r0,72r-511,0r0,-700r506,0xm340,-762r-113,-108r80,-37r95,145r-62,0","w":670},"\u00c9":{"d":"605,-700r0,72r-427,0r0,239r382,0r0,72r-382,0r0,245r432,0r0,72r-511,0r0,-700r506,0xm359,-762r-62,0r95,-145r80,37","w":670},"\u00ca":{"d":"605,-700r0,72r-427,0r0,239r382,0r0,72r-382,0r0,245r432,0r0,72r-511,0r0,-700r506,0xm347,-829r-75,67r-64,0r106,-131r68,0r106,131r-66,0","w":670},"\u00cb":{"d":"605,-700r0,72r-427,0r0,239r382,0r0,72r-382,0r0,245r432,0r0,72r-511,0r0,-700r506,0xm481,-762r-90,0r0,-95r90,0r0,95xm305,-762r-90,0r0,-95r90,0r0,95","w":670},"\u00cc":{"d":"106,-700r79,0r0,700r-79,0r0,-700xm115,-762r-113,-108r80,-37r95,145r-62,0","w":291},"\u00cd":{"d":"106,-700r79,0r0,700r-79,0r0,-700xm176,-762r-62,0r95,-145r80,37","w":291},"\u00ce":{"d":"106,-700r79,0r0,700r-79,0r0,-700xm145,-829r-75,67r-64,0r106,-131r68,0r106,131r-66,0","w":291},"\u00cf":{"d":"106,-700r79,0r0,700r-79,0r0,-700xm279,-762r-90,0r0,-95r90,0r0,95xm103,-762r-90,0r0,-95r90,0r0,95","w":291},"\u00d0":{"d":"744,-351v0,201,-165,351,-372,351r-243,0r0,-316r-75,0r0,-72r75,0r0,-312r243,0v208,-5,372,148,372,349xm662,-349v0,-160,-124,-282,-290,-278r-164,0r0,239r210,0r0,72r-210,0r0,243r164,0v166,4,290,-116,290,-276","w":812},"\u00d1":{"d":"614,-139r0,-561r77,0r0,700r-63,0r-452,-574r0,574r-77,0r0,-700r74,0xm460,-831v34,-2,37,-19,52,-49r47,13v-18,61,-33,99,-95,105v-24,3,-114,-42,-134,-40v-34,2,-37,19,-52,49r-47,-13v18,-61,33,-99,95,-105v24,-3,114,42,134,40"},"\u00d2":{"d":"426,-712v201,0,356,165,356,361v0,196,-157,363,-358,363v-201,0,-356,-165,-356,-361v0,-196,157,-363,358,-363xm426,-61v156,0,274,-132,274,-288v0,-156,-120,-290,-276,-290v-156,0,-274,132,-274,288v0,156,120,290,276,290xm389,-762r-113,-108r80,-37r95,145r-62,0","w":850},"\u00d3":{"d":"426,-712v201,0,356,165,356,361v0,196,-157,363,-358,363v-201,0,-356,-165,-356,-361v0,-196,157,-363,358,-363xm426,-61v156,0,274,-132,274,-288v0,-156,-120,-290,-276,-290v-156,0,-274,132,-274,288v0,156,120,290,276,290xm461,-762r-62,0r95,-145r80,37","w":850},"\u00d4":{"d":"426,-712v201,0,356,165,356,361v0,196,-157,363,-358,363v-201,0,-356,-165,-356,-361v0,-196,157,-363,358,-363xm426,-61v156,0,274,-132,274,-288v0,-156,-120,-290,-276,-290v-156,0,-274,132,-274,288v0,156,120,290,276,290xm424,-829r-75,67r-64,0r106,-131r68,0r106,131r-66,0","w":850},"\u00d5":{"d":"426,-712v201,0,356,165,356,361v0,196,-157,363,-358,363v-201,0,-356,-165,-356,-361v0,-196,157,-363,358,-363xm426,-61v156,0,274,-132,274,-288v0,-156,-120,-290,-276,-290v-156,0,-274,132,-274,288v0,156,120,290,276,290xm490,-831v34,-2,37,-19,52,-49r47,13v-18,61,-33,99,-95,105v-24,3,-114,-42,-134,-40v-34,2,-37,19,-52,49r-47,-13v18,-61,33,-99,95,-105v24,-3,114,42,134,40","w":850},"\u00d6":{"d":"426,-712v201,0,356,165,356,361v0,196,-157,363,-358,363v-201,0,-356,-165,-356,-361v0,-196,157,-363,358,-363xm426,-61v156,0,274,-132,274,-288v0,-156,-120,-290,-276,-290v-156,0,-274,132,-274,288v0,156,120,290,276,290xm558,-762r-90,0r0,-95r90,0r0,95xm382,-762r-90,0r0,-95r90,0r0,95","w":850},"\u00d8":{"d":"68,-349v0,-196,157,-363,358,-363v85,0,158,25,219,74r62,-67r83,0r-99,109v61,67,91,148,91,245v0,196,-157,363,-358,363v-85,0,-158,-25,-219,-74r-62,67r-83,0r99,-108v-61,-68,-91,-150,-91,-246xm424,-641v-157,0,-275,133,-275,290v0,72,21,135,63,188r383,-417v-51,-41,-108,-61,-171,-61xm426,-59v157,0,275,-133,275,-290v0,-72,-21,-135,-63,-188r-383,417v51,41,108,61,171,61","w":850},"\u00d9":{"d":"381,-62v137,0,211,-87,211,-231r0,-407r79,0r0,401v3,192,-108,310,-292,310v-180,1,-291,-117,-291,-304r0,-407r79,0r0,402v-2,144,75,236,214,236xm354,-757r-113,-108r80,-37r95,145r-62,0","w":759},"\u00da":{"d":"381,-62v137,0,211,-87,211,-231r0,-407r79,0r0,401v3,192,-108,310,-292,310v-180,1,-291,-117,-291,-304r0,-407r79,0r0,402v-2,144,75,236,214,236xm405,-757r-62,0r95,-145r80,37","w":759},"\u00db":{"d":"381,-62v137,0,211,-87,211,-231r0,-407r79,0r0,401v3,192,-108,310,-292,310v-180,1,-291,-117,-291,-304r0,-407r79,0r0,402v-2,144,75,236,214,236xm378,-826r-75,67r-64,0r106,-131r68,0r106,131r-66,0","w":759},"\u00dc":{"d":"381,-62v137,0,211,-87,211,-231r0,-407r79,0r0,401v3,192,-108,310,-292,310v-180,1,-291,-117,-291,-304r0,-407r79,0r0,402v-2,144,75,236,214,236xm512,-759r-90,0r0,-95r90,0r0,95xm336,-759r-90,0r0,-95r90,0r0,95","w":759},"\u00dd":{"d":"398,-278r0,278r-80,0r0,-277r-291,-423r96,0r236,350r238,-350r92,0xm391,-757r-62,0r95,-145r80,37","w":716},"\u00de":{"d":"361,-580v149,-2,262,80,262,223v0,148,-126,231,-275,231r-170,0r0,126r-79,0r0,-700r79,0r0,120r183,0xm351,-198v106,2,192,-57,192,-156v0,-104,-80,-154,-188,-153r-177,0r0,309r173,0","w":673},"\u00df":{"d":"313,-737v115,0,206,73,206,181v0,83,-46,144,-139,184v95,22,182,71,182,179v0,136,-120,199,-270,195r0,-62v105,-2,191,-38,191,-133v0,-94,-91,-128,-191,-138r0,-57v99,-37,148,-91,148,-163v1,-72,-57,-118,-131,-118v-90,0,-146,72,-146,167r0,502r-77,0r0,-501v-2,-138,89,-236,227,-236","w":620},"\u00e0":{"d":"427,-297v6,-107,-52,-159,-154,-159v-49,0,-102,13,-157,38r-23,-63v63,-29,125,-43,188,-43v139,0,220,71,220,208r0,316r-74,0r0,-78v-45,59,-108,89,-187,89v-100,1,-195,-61,-193,-162v2,-116,98,-169,221,-168v54,0,107,7,159,22xm255,-50v88,0,174,-56,173,-140r0,-50v-51,-15,-101,-22,-152,-22v-85,-1,-149,33,-151,108v-1,66,62,104,130,104xm261,-595r-113,-108r80,-37r95,145r-62,0","w":579},"\u00e1":{"d":"427,-297v6,-107,-52,-159,-154,-159v-49,0,-102,13,-157,38r-23,-63v63,-29,125,-43,188,-43v139,0,220,71,220,208r0,316r-74,0r0,-78v-45,59,-108,89,-187,89v-100,1,-195,-61,-193,-162v2,-116,98,-169,221,-168v54,0,107,7,159,22xm255,-50v88,0,174,-56,173,-140r0,-50v-51,-15,-101,-22,-152,-22v-85,-1,-149,33,-151,108v-1,66,62,104,130,104xm310,-595r-62,0r95,-145r80,37","w":579},"\u00e2":{"d":"427,-297v6,-107,-52,-159,-154,-159v-49,0,-102,13,-157,38r-23,-63v63,-29,125,-43,188,-43v139,0,220,71,220,208r0,316r-74,0r0,-78v-45,59,-108,89,-187,89v-100,1,-195,-61,-193,-162v2,-116,98,-169,221,-168v54,0,107,7,159,22xm255,-50v88,0,174,-56,173,-140r0,-50v-51,-15,-101,-22,-152,-22v-85,-1,-149,33,-151,108v-1,66,62,104,130,104xm290,-662r-75,67r-64,0r106,-131r68,0r106,131r-66,0","w":579},"\u00e3":{"d":"427,-297v6,-107,-52,-159,-154,-159v-49,0,-102,13,-157,38r-23,-63v63,-29,125,-43,188,-43v139,0,220,71,220,208r0,316r-74,0r0,-78v-45,59,-108,89,-187,89v-100,1,-195,-61,-193,-162v2,-116,98,-169,221,-168v54,0,107,7,159,22xm255,-50v88,0,174,-56,173,-140r0,-50v-51,-15,-101,-22,-152,-22v-85,-1,-149,33,-151,108v-1,66,62,104,130,104xm357,-664v34,-2,37,-19,52,-49r47,13v-18,61,-33,99,-95,105v-24,3,-114,-42,-134,-40v-34,2,-37,19,-52,49r-47,-13v18,-61,33,-99,95,-105v24,-3,114,42,134,40","w":579},"\u00e4":{"d":"427,-297v6,-107,-52,-159,-154,-159v-49,0,-102,13,-157,38r-23,-63v63,-29,125,-43,188,-43v139,0,220,71,220,208r0,316r-74,0r0,-78v-45,59,-108,89,-187,89v-100,1,-195,-61,-193,-162v2,-116,98,-169,221,-168v54,0,107,7,159,22xm255,-50v88,0,174,-56,173,-140r0,-50v-51,-15,-101,-22,-152,-22v-85,-1,-149,33,-151,108v-1,66,62,104,130,104xm424,-595r-90,0r0,-95r90,0r0,95xm248,-595r-90,0r0,-95r90,0r0,95","w":579},"\u00e5":{"d":"427,-297v6,-107,-52,-159,-154,-159v-49,0,-102,13,-157,38r-23,-63v63,-29,125,-43,188,-43v139,0,220,71,220,208r0,316r-74,0r0,-78v-45,59,-108,89,-187,89v-100,1,-195,-61,-193,-162v2,-116,98,-169,221,-168v54,0,107,7,159,22xm255,-50v88,0,174,-56,173,-140r0,-50v-51,-15,-101,-22,-152,-22v-85,-1,-149,33,-151,108v-1,66,62,104,130,104xm291,-793v54,0,104,46,104,100v0,54,-50,100,-104,100v-54,0,-104,-46,-104,-100v0,-54,50,-100,104,-100xm291,-631v32,0,62,-30,62,-62v0,-32,-30,-62,-62,-62v-32,0,-62,30,-62,62v0,32,30,62,62,62","w":579},"\u00e6":{"d":"673,12v-92,-1,-164,-46,-205,-104v-66,69,-141,103,-226,103v-103,1,-195,-59,-195,-162v0,-113,97,-169,217,-168v50,0,101,7,153,22v6,-105,-48,-159,-149,-159v-46,0,-97,13,-152,38r-23,-63v63,-29,124,-43,183,-43v101,0,164,37,190,111v36,-63,106,-114,198,-115v156,-2,254,134,239,298r-409,0v7,99,81,174,181,175v62,0,116,-24,163,-73r48,43v-57,65,-128,97,-213,97xm826,-287v-7,-95,-63,-176,-164,-176v-96,0,-161,83,-169,176r333,0xm125,-155v-1,66,59,104,126,104v69,0,131,-31,186,-92v-12,-30,-19,-63,-21,-98v-53,-14,-101,-21,-144,-21v-83,-1,-145,33,-147,107","w":953},"\u00e7":{"d":"133,-259v0,109,83,202,190,202v57,0,110,-26,158,-77r49,46v-57,63,-122,96,-196,100r-66,143r-75,-34r78,-114v-118,-17,-217,-131,-217,-264v0,-145,119,-271,265,-271v80,0,149,31,207,92r-51,54v-49,-52,-102,-78,-157,-78v-104,0,-185,95,-185,201","w":571},"\u00e8":{"d":"302,-528v156,0,252,132,240,298r-410,0v7,99,81,174,182,175v62,0,116,-24,163,-73r48,43v-58,65,-129,97,-213,97v-146,0,-258,-119,-258,-270v0,-144,107,-270,248,-270xm465,-287v-7,-95,-64,-176,-165,-176v-95,0,-161,84,-168,176r333,0xm276,-595r-113,-108r80,-37r95,145r-62,0","w":592},"\u00e9":{"d":"302,-528v156,0,252,132,240,298r-410,0v7,99,81,174,182,175v62,0,116,-24,163,-73r48,43v-58,65,-129,97,-213,97v-146,0,-258,-119,-258,-270v0,-144,107,-270,248,-270xm465,-287v-7,-95,-64,-176,-165,-176v-95,0,-161,84,-168,176r333,0xm316,-595r-62,0r95,-145r80,37","w":592},"\u00ea":{"d":"302,-528v156,0,252,132,240,298r-410,0v7,99,81,174,182,175v62,0,116,-24,163,-73r48,43v-58,65,-129,97,-213,97v-146,0,-258,-119,-258,-270v0,-144,107,-270,248,-270xm465,-287v-7,-95,-64,-176,-165,-176v-95,0,-161,84,-168,176r333,0xm298,-662r-75,67r-64,0r106,-131r68,0r106,131r-66,0","w":592},"\u00eb":{"d":"302,-528v156,0,252,132,240,298r-410,0v7,99,81,174,182,175v62,0,116,-24,163,-73r48,43v-58,65,-129,97,-213,97v-146,0,-258,-119,-258,-270v0,-144,107,-270,248,-270xm465,-287v-7,-95,-64,-176,-165,-176v-95,0,-161,84,-168,176r333,0xm432,-595r-90,0r0,-95r90,0r0,95xm256,-595r-90,0r0,-95r90,0r0,95","w":592},"\u00ec":{"d":"170,0r-77,0r0,-517r77,0r0,517xm102,-595r-113,-108r80,-37r95,145r-62,0","w":263},"\u00ed":{"d":"170,0r-77,0r0,-517r77,0r0,517xm162,-595r-62,0r95,-145r80,37","w":263},"\u00ee":{"d":"170,0r-77,0r0,-517r77,0r0,517xm130,-662r-75,67r-64,0r106,-131r68,0r106,131r-66,0","w":263},"\u00ef":{"d":"170,0r-77,0r0,-517r77,0r0,517xm264,-595r-90,0r0,-95r90,0r0,95xm88,-595r-90,0r0,-95r90,0r0,95","w":263},"\u00f0":{"d":"54,-246v0,-134,107,-242,237,-240v56,0,110,18,162,55r-131,-184r-128,63r-36,-47r131,-61r-50,-70r92,0r26,39r99,-48r35,47r-102,47v54,84,131,179,167,271v14,37,22,78,22,122v2,146,-114,264,-266,264v-142,0,-258,-118,-258,-258xm317,-56v104,0,182,-86,182,-188v0,-100,-87,-181,-190,-181v-104,0,-177,79,-177,182v0,99,84,187,185,187","w":633},"\u00f1":{"d":"318,-458v-90,0,-155,70,-155,162r0,296r-77,0r0,-517r77,0r0,90v41,-67,100,-101,177,-101v122,-2,198,84,198,207r0,321r-77,0r0,-302v1,-94,-51,-156,-143,-156xm377,-664v34,-2,37,-19,52,-49r47,13v-18,61,-33,99,-95,105v-24,3,-114,-42,-134,-40v-34,2,-37,19,-52,49r-47,-13v18,-61,33,-99,95,-105v24,-3,114,42,134,40","w":616},"\u00f2":{"d":"324,-528v149,0,269,122,269,269v0,147,-123,271,-271,271v-149,0,-268,-122,-268,-269v0,-147,122,-271,270,-271xm324,-57v109,0,190,-91,190,-200v0,-109,-85,-203,-192,-203v-110,0,-189,91,-189,201v0,109,84,202,191,202xm292,-595r-113,-108r80,-37r95,145r-62,0","w":646},"\u00f3":{"d":"324,-528v149,0,269,122,269,269v0,147,-123,271,-271,271v-149,0,-268,-122,-268,-269v0,-147,122,-271,270,-271xm324,-57v109,0,190,-91,190,-200v0,-109,-85,-203,-192,-203v-110,0,-189,91,-189,201v0,109,84,202,191,202xm355,-595r-62,0r95,-145r80,37","w":646},"\u00f4":{"d":"324,-528v149,0,269,122,269,269v0,147,-123,271,-271,271v-149,0,-268,-122,-268,-269v0,-147,122,-271,270,-271xm324,-57v109,0,190,-91,190,-200v0,-109,-85,-203,-192,-203v-110,0,-189,91,-189,201v0,109,84,202,191,202xm322,-662r-75,67r-64,0r106,-131r68,0r106,131r-66,0","w":646},"\u00f5":{"d":"324,-528v149,0,269,122,269,269v0,147,-123,271,-271,271v-149,0,-268,-122,-268,-269v0,-147,122,-271,270,-271xm324,-57v109,0,190,-91,190,-200v0,-109,-85,-203,-192,-203v-110,0,-189,91,-189,201v0,109,84,202,191,202xm388,-664v34,-2,37,-19,52,-49r47,13v-18,61,-33,99,-95,105v-24,3,-114,-42,-134,-40v-34,2,-37,19,-52,49r-47,-13v18,-61,33,-99,95,-105v24,-3,114,42,134,40","w":646},"\u00f6":{"d":"324,-528v149,0,269,122,269,269v0,147,-123,271,-271,271v-149,0,-268,-122,-268,-269v0,-147,122,-271,270,-271xm324,-57v109,0,190,-91,190,-200v0,-109,-85,-203,-192,-203v-110,0,-189,91,-189,201v0,109,84,202,191,202xm456,-595r-90,0r0,-95r90,0r0,95xm280,-595r-90,0r0,-95r90,0r0,95","w":646},"\u00f8":{"d":"54,-257v0,-147,122,-271,270,-271v62,0,116,18,161,54r45,-49r78,0r-80,86v43,50,65,109,65,178v0,147,-123,271,-271,271v-60,0,-114,-18,-161,-53r-45,46r-77,0r79,-85v-43,-51,-64,-110,-64,-177xm322,-461v-110,-2,-191,91,-191,202v0,47,13,88,39,123r268,-283v-32,-28,-71,-42,-116,-42xm324,-55v111,2,193,-91,191,-202v0,-47,-13,-89,-39,-124r-268,285v33,27,72,41,116,41","w":646},"\u00f9":{"d":"298,-59v90,0,155,-70,155,-162r0,-296r76,0r0,517r-76,0r0,-90v-42,67,-101,101,-177,101v-122,2,-198,-84,-198,-207r0,-321r77,0r0,302v-1,94,51,156,143,156xm284,-591r-113,-108r80,-37r95,145r-62,0","w":616},"\u00fa":{"d":"298,-59v90,0,155,-70,155,-162r0,-296r76,0r0,517r-76,0r0,-90v-42,67,-101,101,-177,101v-122,2,-198,-84,-198,-207r0,-321r77,0r0,302v-1,94,51,156,143,156xm328,-591r-62,0r95,-145r80,37","w":616},"\u00fb":{"d":"298,-59v90,0,155,-70,155,-162r0,-296r76,0r0,517r-76,0r0,-90v-42,67,-101,101,-177,101v-122,2,-198,-84,-198,-207r0,-321r77,0r0,302v-1,94,51,156,143,156xm308,-662r-75,67r-64,0r106,-131r68,0r106,131r-66,0","w":616},"\u00fc":{"d":"298,-59v90,0,155,-70,155,-162r0,-296r76,0r0,517r-76,0r0,-90v-42,67,-101,101,-177,101v-122,2,-198,-84,-198,-207r0,-321r77,0r0,302v-1,94,51,156,143,156xm442,-595r-90,0r0,-95r90,0r0,95xm266,-595r-90,0r0,-95r90,0r0,95","w":616},"\u00fd":{"d":"555,-517r-217,534v-22,53,-46,91,-73,113v-54,46,-142,40,-209,7r26,-61v42,22,105,31,140,-2v16,-14,32,-40,47,-76r-235,-515r85,0r188,431r166,-431r82,0xm329,-591r-62,0r95,-145r80,37","w":591},"\u00fe":{"d":"361,-528v138,0,247,119,247,269v0,150,-109,270,-247,270v-81,0,-147,-37,-198,-110r0,259r-77,0r0,-890r77,0r0,317v52,-77,118,-115,198,-115xm347,-58v108,0,182,-85,182,-200v0,-112,-77,-201,-182,-201v-102,0,-187,92,-187,200v0,109,85,201,187,201","w":664},"\u00ff":{"d":"555,-517r-217,534v-22,53,-46,91,-73,113v-54,46,-142,40,-209,7r26,-61v42,22,105,31,140,-2v16,-14,32,-40,47,-76r-235,-515r85,0r188,431r166,-431r82,0xm429,-595r-90,0r0,-95r90,0r0,95xm253,-595r-90,0r0,-95r90,0r0,95","w":591},"\u0152":{"d":"68,-349v0,-201,165,-351,372,-351r626,0r0,72r-409,0r0,239r364,0r0,72r-364,0r0,245r414,0r0,72r-631,0v-208,5,-372,-148,-372,-349xm150,-351v0,160,124,282,290,278r138,0r0,-554r-138,0v-166,-4,-290,116,-290,276","w":1131},"\u0153":{"d":"770,12v-105,-1,-187,-62,-222,-140v-38,76,-121,138,-229,140v-145,3,-265,-125,-265,-269v0,-145,122,-274,268,-271v108,2,189,63,227,139v35,-77,108,-138,212,-139v156,-1,250,133,238,298r-409,0v7,99,80,174,181,175v62,0,116,-24,163,-73r48,43v-57,65,-127,97,-212,97xm922,-287v-7,-95,-63,-176,-164,-176v-96,0,-161,83,-169,176r333,0xm323,-57v109,0,188,-91,188,-200v0,-109,-83,-203,-190,-203v-109,0,-188,92,-188,201v0,108,83,202,190,202","w":1049},"\u0178":{"d":"398,-278r0,278r-80,0r0,-277r-291,-423r96,0r236,350r238,-350r92,0xm491,-759r-90,0r0,-95r90,0r0,95xm315,-759r-90,0r0,-95r90,0r0,95","w":716},"\u02c6":{"d":"249,-662r-75,67r-64,0r106,-131r68,0r106,131r-66,0","w":500},"\u02dc":{"d":"315,-664v34,-2,37,-19,52,-49r47,13v-18,61,-33,99,-95,105v-24,3,-114,-42,-134,-40v-34,2,-37,19,-52,49r-47,-13v18,-61,33,-99,95,-105v24,-3,114,42,134,40","w":500},"\u2013":{"d":"463,-262r-398,0r0,-77r398,0r0,77","w":528},"\u2014":{"d":"833,-262r-768,0r0,-77r768,0r0,77","w":898},"\u2018":{"d":"194,-670v-42,16,-68,35,-67,87r37,0r0,105r-92,0v1,-68,-6,-146,26,-182v18,-20,45,-36,84,-45","w":245},"\u2019":{"d":"51,-508v48,-19,69,-42,67,-87r-36,0r0,-105r92,0v-1,68,7,146,-26,182v-19,20,-46,36,-85,45","w":245},"\u201a":{"d":"46,87v48,-19,69,-42,67,-87r-36,0r0,-105r92,0v-1,68,6,146,-27,182v-19,20,-45,36,-84,45","w":245},"\u201c":{"d":"394,-670v-42,16,-68,35,-67,87r36,0r0,105r-91,0v1,-68,-6,-146,26,-182v18,-20,45,-36,84,-45xm194,-670v-42,16,-68,35,-67,87r37,0r0,105r-92,0v1,-68,-6,-146,26,-182v18,-20,45,-36,84,-45","w":445},"\u201d":{"d":"251,-508v48,-19,69,-42,67,-87r-36,0r0,-105r91,0v-1,68,6,146,-26,182v-18,20,-45,36,-84,45xm51,-508v48,-19,69,-42,67,-87r-36,0r0,-105r92,0v-1,68,7,146,-26,182v-19,20,-46,36,-85,45","w":445},"\u201e":{"d":"246,87v48,-19,69,-42,67,-87r-36,0r0,-105r91,0v-1,68,6,146,-26,182v-18,20,-45,36,-84,45xm46,87v48,-19,69,-42,67,-87r-36,0r0,-105r92,0v-1,68,6,146,-27,182v-19,20,-45,36,-84,45","w":445},"\u2022":{"d":"239,-483v70,0,131,61,131,131v0,70,-61,131,-131,131v-70,0,-131,-61,-131,-131v0,-70,61,-131,131,-131","w":478},"\u2026":{"d":"647,0r-90,0r0,-103r90,0r0,103xm406,0r-89,0r0,-103r89,0r0,103xm166,0r-89,0r0,-103r89,0r0,103","w":723},"\u2039":{"d":"210,-476r59,33r-135,183r135,185r-59,34r-162,-214r0,-8","w":328},"\u203a":{"d":"117,-41r-58,-33r135,-184r-135,-184r58,-34r162,213r0,8","w":328},"\u2122":{"d":"605,-628r-110,167r-6,0r-109,-167r0,236r-44,0r0,-308r47,0r110,169r109,-169r46,0r0,308r-43,0r0,-236xm169,-658r0,266r-44,0r0,-266r-99,0r0,-42r242,0r0,42r-99,0","w":690}}});
